il -0.3767724 -0.23446013 0.044845562 0.07905681 -0.10529 -0.07471641 0.5132861 0.1997854 -0.33934078 -0.1262568 0.22578089 -0.3891251 0.38043594 0.060234047 -0.09344857 0.23245777 -0.029605417 -0.23974206 -0.5235847 -0.022817122 0.025470313 0.04464165 0.19534393 0.18892595 -0.1596891 -0.025590347 -0.20565897 -0.026921952 -0.2287595 -0.29706058 -0.31701848 -0.0070066946 -0.06329372 0.08805381 -0.26512846 -0.0019498167 0.13595362 -0.27269465 0.3166935 -0.46645352 -0.045658935 0.14831358 0.081627786 -0.24082464 0.1726559 -0.076191686 -0.020674895 0.05914549 0.16799065 0.058847114
di -0.24627371 -0.24440044 0.14256915 0.04528567 -0.14791545 -0.22916746 0.4630874 0.19794999 -0.27451697 -0.14931066 0.2409326 -0.57061666 0.31211892 0.011360334 -0.14642102 0.35224664 -0.01821401 -0.22623837 -0.6956061 -0.046271004 -0.05358902 -0.0150442105 0.21423839 0.020410938 -0.14202377 -0.041983824 -0.07894055 0.04039759 -0.29240406 -0.32234108 -0.23964483 0.031223467 0.036001507 0.06176916 -0.24009089 0.04437937 0.17531225 -0.34293672 0.2914193 -0.34674472 -0.11564496 0.20013984 0.12507483 -0.26075912 0.20625229 -0.14751402 -0.0033385947 -0.09647971 0.27569675 0.0993121
, -0.3110133 -0.09725481 0.22751501 0.028169306 -0.15923168 -0.33799225 0.4430215 0.14396875 -0.286733 -0.12771957 0.39027828 -0.6129448 0.6208409 0.11030878 -0.17156574 0.14425841 -0.031824734 -0.3049797 -0.54969704 -0.16611247 0.3087492 -0.015869688 0.16744074 0.068177536 -0.07688982 0.07708459 -0.3584504 -0.026798017 -0.27559283 -0.05969605 -0.108189404 -0.16703176 0.25756162 0.020884499 -0.34431565 0.10467741 0.28705046 -0.079185 0.30029643 -0.3154965 -0.05949472 -0.008706898 0.16168669 -0.043149702 0.17190258 -0.08640144 -0.16034219 0.16520931 0.24664587 0.18269116
a -0.24791826 -0.32429838 0.060284227 0.22348379 0.088940136 -0.08866988 0.58909565 0.24514551 -0.4466915 -0.11630585 0.3035303 -0.32671767 0.17591552 -0.2291498 -0.22137374 0.16950384 -0.13829385 -0.3773377 -0.4231424 -0.11338054 0.39547935 0.14697507 0.3152685 0.20254727 -0.123308204 -0.04594943 -0.37863263 -0.08484866 -0.24309546 -0.2706956 -0.32499352 0.07706001 0.07054366 0.134328 -0.10083653 -0.060123634 0.10512432 -0.24132541 0.27029374 -0.431637 0.20018305 0.32147813 -0.01719872 -0.3225217 0.109856725 0.0066467915 -0.17827423 -0.040924568 0.15204057 0.18103386
. -0.41768947 -0.10339048 0.053921502 0.007828121 0.03647712 -0.13267273 0.44938383 0.17716114 -0.058318853 -0.051618926 0.4208517 -0.35881007 0.52818817 0.030425793 0.03030779 0.34079838 0.02716958 -0.28230217 -0.6484421 0.011678069 -0.05783815 0.067552775 0.39702028 0.28964075 -0.19287047 0.1858796 0.22834423 -0.08517139 -0.3156968 -0.18583813 -0.24707086 -0.32022446 0.08672824 -0.43535936 -0.81783736 0.3952436 0.11719155 -0.31480592 0.34337473 -0.39227122 -0.04368776 -0.10218265 -0.05868514 -0.2662151 0.040932313 -0.04026531 -0.22853094 -0.1819281 0.16372666 0.14636256
in -0.36342868 -0.26430622 0.043607146 0.03031191 -0.19109598 -0.06006123 0.5536613 0.23635428 -0.4340444 -0.18093483 0.29731828 -0.49363315 0.410078 0.37420216 0.0024050921 0.14004955 -0.07510249 -0.3265446 -0.23629378 -0.24723294 -0.23243755 0.036244202 0.21821934 0.34636432 0.11690934 0.13113253 0.055527784 -0.014476766 -0.0386557 -0.29726785 -0.3002168 -0.018969048 -0.25261292 0.16449493 -0.22259976 -0.06755983 -0.046056293 -0.45750478 0.5225632 -0.7480019 0.0056652036 0.25387233 0.11766352 -0.35989192 0.27484208 0.29476348 0.03341701 -0.018849444 0.051743202 -0.046728555
) -0.4906732 0.102086745 0.29399493 -0.14376485 0.26001573 -0.41530553 0.43637818 -0.16394943 -0.106459506 0.03927298 0.20749685 -0.32248 0.56916106 0.05569397 0.046858594 0.07751664 0.1280971 -0.05439523 -0.77300245 -0.14284009 0.14631322 -0.49872234 0.55052555 -0.15737252 -0.6972487 -0.12761725 -0.5165972 -0.07061174 0.20654829 -0.37707776 0.07981798 -0.21997036 -0.049490005 -0.11947311 -0.27746364 -0.09094685 0.7389543 -0.09568134 -0.2750065 -0.46601596 -0.18496914 -0.058132913 0.0012086636 -0.033480994 0.68046844 -0.403389 -0.36824748 0.054642454 0.18654744 0.2932048
e -0.18477398 -0.34189036 -0.093187094 -0.056198537 -0.13603862 0.048487555 0.29410672 0.37414077 -0.18468575 -0.04818913 0.20501104 -0.5718028 0.54110575 0.17126185 0.04585843 0.18532895 0.19229393 -0.21958597 -0.58020896 -0.5020519 0.27635735 0.024756653 0.039103374 0.050238315 -0.1456645 -0.084729455 -0.21929476 0.051166195 -0.27997842 -0.3976235 -0.32757524 0.12031837 0.062317457 0.17799443 -0.3416483 0.105548255 0.37494686 -0.14308056 0.14692175 -0.62284076 -0.20099206 -0.049570166 0.25329262 -0.066598214 0.11040992 0.026831726 -0.037768785 -0.14082377 0.11404418 0.17938986
essere -0.25706112 -0.38161528 -0.025490694 -0.16636156 0.56211317 -0.2205209 0.6153128 0.25993353 -0.22982645 0.2662319 0.016029496 -0.27492595 0.3397698 0.51058793 0.19037859 0.090514556 -0.055949327 -0.028091963 -0.33086166 0.03859978 -0.12720035 0.01214472 0.7716945 0.29113603 -0.06788784 0.14457648 -0.22590931 -0.009854731 -0.28405425 -0.42990005 -0.40208218 0.039751485 -0.23126231 -0.2481381 -0.17608252 -0.27290082 0.028355956 -0.19017498 0.061071716 -0.598624 0.49813512 -0.059744168 -0.22413814 -0.22571442 0.48257703 0.18667512 -0.021644814 0.15580034 0.21612525 0.006247793
( -0.5423367 0.13827261 0.17021056 -0.15751995 0.0687411 -0.53521234 0.24354173 -0.18811053 -0.07429349 -0.17225829 0.1782332 -0.1671364 0.69062436 0.16026941 -0.113473356 -0.09500376 0.038975723 -4.0024515e-05 -0.8028078 -0.01463683 0.025283322 0.047161855 0.7464659 0.032812133 -0.49496958 -0.23011677 -0.26452178 0.24181981 0.26755705 -0.5625813 -0.29936224 -0.3012158 0.3555167 -0.002331482 -0.54727805 -0.041356765 0.7875801 0.097039394 -0.22159833 -0.45721838 -0.07866892 0.22334439 0.14497724 -0.37667432 0.58441067 -0.766131 -0.62452435 0.3927357 0.037164975 0.44078445
regolamento -0.9914966 -3.8590082e-05 0.4481892 0.2518075 -0.23823039 -0.47231174 0.3345376 -0.3413309 -0.17237824 -0.06381711 0.2983037 0.012931065 0.3974908 -0.15293224 0.35249206 0.2378114 -0.1078827 -0.26354912 -0.63006675 0.25162664 0.01392747 -0.117825456 0.83502096 0.40503046 -0.66898954 0.032301206 0.21074964 -0.19173409 0.25153124 -0.27377233 -0.18400946 -0.7421274 -0.054438636 -0.42989412 0.22867228 -0.24285209 0.5804989 0.3577209 0.5942806 -0.76359373 -0.10120896 0.29460043 0.2569188 -0.28277117 0.23059179 0.14133179 -1.0678248 0.43629095 -0.22389643 -0.20863777
da -0.17360784 -0.10009057 0.20665365 0.07279217 0.33955133 0.11499839 0.8473233 -0.16952923 -0.640065 -0.080516525 0.3220971 -0.3871545 0.8505401 -0.0032519181 0.2672651 0.15950418 -0.20355248 -0.192911 -0.33048058 -0.24100578 -0.45278284 0.028817171 0.27181736 -0.044840623 -0.06555853 0.15806234 -0.03714397 -0.29021686 -0.64005846 -0.29035693 -0.017063292 -0.19241859 0.21600296 -0.04785693 -0.20831251 -0.029398605 0.18543886 -0.11140725 -0.18133987 -0.43428746 0.30856097 0.049403682 -0.069004044 -0.09116186 0.0023764148 0.3380903 0.3716628 -0.022119941 0.12435706 -0.42066392
per -0.13748093 -0.2592766 0.29833934 -0.2969639 0.16214137 0.004622316 0.7455535 0.16941823 -0.21514902 -0.13286719 0.30942985 -0.50995946 0.21010004 0.21217349 -0.21085483 0.22851756 0.07019633 -0.19738695 -0.38121644 -0.4032826 -0.22101414 0.107074656 0.38931742 0.54053754 -0.25361973 0.037771836 -0.008648582 -0.20000173 -0.35058257 -0.28934863 -0.38640946 0.22394004 -0.22746754 0.26954785 -0.18216355 -0.05220683 -0.023104923 -0.31485957 -0.17066027 -0.2923709 0.15632233 0.058747407 0.4962902 0.07410248 0.17730589 0.06060903 0.24774732 -0.13475752 0.2405628 0.25974205
uno -0.03310111 -0.43239072 0.22427447 -0.11758075 0.1361248 -0.1768703 0.19853784 0.18083286 -0.40330377 -0.10418512 -0.09261957 -0.9617768 0.029141879 -0.26661524 0.27260467 0.41539305 -0.203466 -0.33507782 -0.5706233 -0.27894804 -0.32603535 0.17308737 0.22165531 0.00053787755 -0.21410374 -0.4836019 -0.19018549 -0.18084471 -0.29281202 -0.60147434 -0.4642694 -0.13123608 0.040880714 0.190094 0.23020674 0.084830575 0.23194107 -0.12828557 0.16998501 -0.46242413 0.16458437 0.15057373 0.1573501 -0.026382713 0.17576183 0.28143513 0.43561918 -0.19487591 0.12813129 -0.25509477
articolo 0.07606115 0.06252021 0.27421156 0.48243684 -0.23846959 -0.49380657 0.5485225 -0.27001494 -0.3560555 -0.39980602 0.33303562 -0.47635096 0.14059302 -0.3811146 0.15182611 0.3853865 -0.39097622 0.31275326 -0.6885402 0.2953968 0.8868771 0.52018386 0.7449364 0.23667301 -0.24136168 0.027387984 -0.39296725 0.3807622 -0.25456402 -0.04747057 0.14495264 -0.30486554 -0.60285276 -0.12336809 0.017970825 -0.3751686 -0.050338387 -0.17749888 0.004817598 -0.4601041 0.3289856 0.081594884 0.37086853 0.18846257 0.2548118 0.017645847 -0.775941 0.2242025 0.3913094 0.8396727
che -0.25640154 -0.33644828 0.32681203 0.027125895 0.18359412 0.12699889 0.50579816 0.09595705 -0.49192247 -0.49793765 0.36078313 -0.41225833 0.29066858 0.30816358 0.04869649 0.27541775 -0.27946073 0.07640128 -0.565293 -0.17478901 -0.18292761 -0.3356319 0.4179053 -0.11487009 -0.42683765 -0.6297508 -0.22524634 -0.30584234 -0.3409735 -0.16171099 -0.5442042 -0.2790424 -0.39721268 0.216929 0.03653032 -0.3359005 0.018484967 0.044091593 0.2719021 -0.40439767 -0.33010986 -0.08685826 -0.2137523 0.17588525 -0.06773524 0.0862896 0.34685335 -0.01200597 0.047262724 -0.3005398
numero -0.8345807 0.46964344 0.39290342 -0.34409443 0.09193726 -0.486279 0.5563291 -0.82670027 -0.08327396 -0.32499337 0.43893757 -0.10945422 0.64490664 0.57651496 0.24331631 -0.19098037 0.01500709 -0.43072575 -0.72888 0.02651912 0.13025256 0.28239247 0.6083211 -0.30920485 -0.6321406 -0.4564482 -0.17759238 -0.18645371 0.17244059 -0.7526496 -0.18587568 -0.73588187 0.3403156 0.020655068 0.06444321 -0.20319827 0.45789066 0.062074076 0.06746068 -0.516054 -0.32908043 0.38369438 0.09919434 0.04934868 0.2455333 -0.4190799 -0.9564824 0.7957021 0.1677462 -0.12347631
CE -0.41546413 0.13557696 0.59153146 -0.00943022 -0.20393609 -0.38870886 -0.13116051 -0.59364617 -0.348059 -0.5414635 0.3102911 -0.34563878 0.6726469 0.34258574 0.33953822 0.1839249 0.36939046 -0.009701184 -1.1807543 -0.008996614 -0.16241974 0.07688984 0.5693547 0.12344785 -0.9731829 -0.5212621 -0.43393967 -0.1263999 -0.2523849 -0.7195324 -0.36389995 -1.0659144 0.33691445 -0.61160195 0.21817824 0.17427522 0.4504401 0.22428253 0.050453752 0.042006943 -0.01836491 0.5688954 0.6257136 0.33089218 0.14396298 -0.42674896 -1.1232363 0.6258352 0.25862622 -0.12214524
o -0.05105607 -0.2739779 0.15774341 -0.13401206 0.4036358 0.10031613 0.644385 0.52144116 -0.50662994 -0.017750874 0.15819725 -0.4689465 0.0042653927 -0.36786976 -0.009528818 0.19110368 -0.13593063 -0.09064627 -0.57087094 -0.33287078 -0.16762678 -0.4292908 0.26720703 0.17082195 0.012841563 -0.036714576 -0.15700088 0.273267 -0.8429863 -0.43572628 0.19891475 -0.25011423 -0.14761344 0.36214125 -0.47990018 0.4189093 0.609188 0.2798553 0.092787534 -0.35929283 0.024835557 -0.014640727 -0.037922528 -0.36127383 0.19112635 0.2958504 -0.06880972 -0.09780135 -0.2880989 -0.23714761
paragrafo -0.18237595 -0.024170943 0.3555937 0.8027967 -0.20765926 -0.79690737 0.84160346 -0.28350446 -0.46245295 -0.2733216 0.2719453 -0.036490317 0.62245667 -0.42842296 -0.12993774 -0.052107498 -0.2204301 0.3310246 -0.43380222 0.055489793 0.8519016 0.786857 0.5546097 -0.082021356 0.023466222 0.014335555 -0.388381 0.3371833 0.107989736 -0.6207114 0.36370444 -0.18767415 -0.7241235 0.0407122 -0.34735072 -0.6449242 0.09433992 -0.066166736 -0.2675315 -0.27826577 0.117052056 0.486487 0.54000664 0.42658433 0.09757751 0.22101825 -0.63367313 0.18799075 0.3593727 0.7465773
cui -0.16149761 -0.80229616 0.17809598 0.45546243 -0.101474755 -0.42380807 0.4937554 0.0094118 -0.32025912 -0.32329994 0.8611159 -0.2071087 0.40898824 -0.21517661 -0.060418215 -0.0029947276 -0.054185707 0.48327583 -0.5681677 -0.48626533 0.6313849 0.36897948 0.6593702 0.01929801 0.10503736 -0.0543173 -0.29058307 0.11345604 -0.13495106 -0.3191665 0.097656965 -0.08971405 -0.10302125 0.1662187 -0.20086809 -0.27869448 0.07293612 -0.121939406 0.042534932 -0.046136007 0.10101852 0.13908733 0.13359797 0.06978025 -0.13453762 0.1604466 -0.10140335 -0.3609732 0.05864215 0.15021841
prodotto 0.19228293 -0.5073808 -0.4430953 -0.2321556 0.45322737 -0.32500663 0.6745325 0.6118363 -0.124211915 -0.38255948 0.64764374 -0.117377356 0.056999404 0.14352004 -0.17891932 0.20233178 -0.2992928 0.08991298 -0.16346379 -0.44410425 -0.035597637 -0.14375784 0.35839954 0.43940556 -0.3737039 -0.2380704 -0.057338484 -0.32911095 -0.69842446 -0.28533334 0.25766817 0.30230752 -0.1997364 -0.08549343 -0.56802195 -0.08074988 0.106992885 0.16486132 0.68518865 -0.52741724 -0.1387437 0.15133806 -0.028402457 0.10129245 0.14946479 0.15927553 -0.07672427 0.26186207 -0.15355773 0.17084162
non 0.07472031 -0.053784057 0.002623926 -0.07730352 0.4288932 -0.49622664 0.3066267 0.24466372 -0.4378157 -0.19600491 0.11199316 -0.5066711 -0.005011423 -0.017597757 0.44353896 0.13047531 -0.2904511 0.040857784 -0.63205194 0.059287768 0.01712218 -0.15888378 0.44698426 0.048694573 -0.3220784 -0.14165002 -0.2773362 -0.2746123 -0.577032 -0.6162627 -0.4353416 -0.25718865 -0.29300648 -0.3331345 0.14012255 -0.3867521 0.14175802 -0.091679655 0.21229586 -0.2816273 0.073901385 -0.43013352 -0.2790717 -0.16925175 0.80783355 0.08058623 0.28743604 -0.41351366 -0.40306783 0.47977033
commissione -1.0635672 0.26949233 0.36317295 0.094059594 0.33295023 -1.0606616 0.18700632 0.17106235 -0.323369 -0.1646493 -0.086021304 -0.31498286 0.67311203 0.027204664 -0.24378642 1.114286 -0.1341305 0.4562823 -1.1132377 0.24232809 -0.38660833 0.72062427 0.31428674 0.2860668 0.13467003 0.16443262 0.11473605 0.15252699 0.066130705 -0.7317834 -0.36335638 0.0933592 -0.3559136 0.100765176 0.2471505 0.09280728 -0.046357423 0.21322292 -0.09870556 -0.10934335 0.35062104 -0.3175796 -0.31250334 0.31076163 0.2472077 -0.34732705 -0.7837008 0.4024249 -0.2546336 -0.5441071
produzione 0.119719505 -0.3279335 0.13184059 -0.17491296 0.64526844 0.08859256 0.3323537 0.2707579 -0.17599949 -0.4760058 0.117813565 -0.0777339 -0.10708459 -0.103392735 -0.18360579 0.4164252 -0.390591 -0.45191306 -0.59795344 -0.613706 -0.14456326 0.2934416 0.056267597 0.8213076 -0.1664716 -0.04071681 -0.28322282 -0.0035217716 -0.10341552 0.055890337 0.29673898 0.26495132 -0.40992728 -0.11868235 -0.25696874 -0.4949036 0.25825253 -0.47572806 0.4089869 -1.0961405 0.022055289 0.20575723 -0.052792538 0.061369468 -0.10165963 0.0030632927 0.06480818 0.07873744 -0.33515227 0.45440727
; 0.03982752 -0.6302748 0.10435185 0.11915261 0.26731676 -0.23914964 0.22060926 0.2098473 -0.38527712 0.17635162 0.084734 -0.47769633 0.47691652 -0.14983334 0.23182432 -0.21813944 0.67051977 -0.060658347 -1.115877 -0.80136645 0.013236171 0.027703388 -0.054820117 0.08390291 -0.34403276 0.16112846 -0.24770427 -0.61241186 -0.26183602 -0.4362073 0.25971827 0.28828886 0.06968633 -0.15669474 -0.29096594 0.35666433 0.41216224 -0.2916038 -0.19673637 -0.45718694 0.0057428004 -0.15903142 -0.30495554 0.18753496 0.16458774 0.14358485 -0.1561231 -0.008251188 0.15187673 0.4674202
2 -0.4543688 0.04693833 0.42361057 -0.024500329 -0.09440327 -0.43935198 0.22621767 -0.29321778 -0.3113017 -0.34946948 0.41014257 -0.16238171 0.041104294 -0.17414708 0.022611672 0.90146655 -0.4156456 0.5152891 -0.8312319 -0.11805205 0.8202479 -0.06827643 0.75126445 -0.5675905 0.37049657 -0.2547161 -0.7345541 0.3470334 -0.15187593 -0.6502356 0.31183735 -0.32677138 -0.37591797 -0.17690966 -0.45604384 -0.2836428 -0.0466809 -0.06535064 -0.43790478 -0.15619712 0.07563498 0.08914663 0.23365863 0.18075976 0.38598448 -0.06917068 -1.1042731 0.2334656 0.29410458 0.40435776
presente -0.12913586 -0.51535827 -0.11669347 0.15951744 -0.20466189 -0.25890663 0.51877624 -0.017931232 -0.57076275 -0.45905638 0.601047 -0.00341384 0.36267012 0.2673959 0.24841619 -0.2713405 0.35608497 0.18228891 -0.064373925 0.16088013 -0.13974057 0.22710302 0.38660192 0.93728256 0.49511334 -0.12747769 -0.5127444 -0.2961386 0.9779834 -1.1106243 -0.23969264 -0.9644333 -0.5166259 -0.20697895 0.7613982 -0.11222444 0.26546058 -0.13168144 0.060734633 -1.1077213 -0.0033033811 0.48660567 0.60998386 -0.021192204 -0.2744608 0.43021718 -0.42842618 -0.20968667 0.056601383 0.16319054
1 -0.22645147 0.38764456 0.81490993 0.12781347 -0.25700483 -0.27695045 0.44224197 -0.30396864 -0.5086173 -0.4285236 0.61603016 -0.36232108 0.056249525 -0.3382585 -0.09391462 0.5521389 0.0032864541 0.10436931 -0.65839666 -0.22887342 0.1595954 0.3676353 0.18305671 0.18680477 0.12815887 -0.12790953 -0.5098334 -0.49064252 0.012386763 -0.43858638 0.40685755 -0.5232155 -0.16642982 -0.30642244 -0.33535346 -0.45195386 0.097253636 -0.13764912 -0.16704153 -0.110061094 0.12520207 0.0691893 0.0353633 0.21914397 0.1955451 0.09962193 -0.655349 -0.108041465 0.24241635 0.13091837
denominazione -0.79419744 1.114069 -0.17864011 -0.8322031 -0.6938272 -0.029456036 0.84032774 0.23332156 0.24751386 -0.14987987 0.09781985 -0.75481355 0.46184316 0.81306744 0.8385351 0.7176517 -0.2870411 -0.111329265 -1.021624 0.37440044 -0.6849536 -0.2705167 0.7075374 0.10698753 0.6365926 -0.41209295 0.7274698 -0.01350713 -0.30735102 -0.68194205 -0.5175214 -0.12578906 -0.10624542 -1.0088503 -0.027828338 -0.17327648 0.5733749 0.41271707 0.30816755 -0.59223413 0.67145985 1.1861254 0.19492005 0.90940386 -0.033111777 0.23249154 0.06777659 0.79939 -0.37528208 0.49372554
biologico 0.6219271 -0.18837464 -0.016265951 -0.24983045 0.95418036 0.24307513 -0.065934286 1.0426387 -0.7301887 -0.10964685 0.5024269 -0.35070157 0.16072692 0.41324466 0.13588811 -0.28064054 -0.03134922 0.10465664 -0.41636497 -0.57100415 -0.35804033 0.49906006 -0.16771393 0.20311466 0.1774317 -0.064397834 -0.43755797 -0.21905757 0.2256632 -0.91760623 0.5349503 -0.10447099 -0.18423586 0.59123296 0.38177457 -0.14567018 0.44124374 -0.3023096 0.3917692 -1.2925413 0.37245136 0.1637285 0.0125185745 0.38205105 0.51821476 0.31666228 -0.30563632 0.18859656 -0.4815345 0.22444752
Unione -0.26150522 -0.28635523 0.5167989 0.5164442 -0.27057776 -0.029562518 1.1312146 -0.3598276 0.2333791 -0.4981639 0.52815956 -0.42361227 -0.05844454 0.30397162 1.363682 -0.28523105 -0.6106684 0.4373895 -0.5378029 -0.105566286 -0.39489317 0.7665751 0.32139874 0.7800646 0.23263231 -0.8459599 -0.9934209 -0.7129624 -0.15699302 -0.28144178 0.018333532 0.17080578 -0.29992285 0.0023196968 -0.8482186 0.6143401 -0.16326314 -0.2898049 0.43106306 0.31626517 -0.0011719841 0.6667555 -0.4632296 -1.0470486 -0.18263945 0.12666586 -0.10344846 0.6953618 0.8219828 0.44696227
GU 0.38719973 -0.10641485 -0.072178595 0.505121 0.5257266 0.44204447 0.46858197 -0.07247729 0.5535789 -0.27248758 1.082185 -1.5786833 0.997385 0.7520585 -0.29104915 0.1156226 -0.78177184 -0.303024 -0.30960065 -0.004338543 -0.26242495 0.280298 0.19224416 0.1113536 -0.26337633 0.610707 0.24939252 -0.7124116 -0.14222135 -0.06847921 0.6770425 -0.76630574 -0.08695167 -0.37678403 -0.71269614 0.8106039 0.63636607 -0.5028229 -0.18490778 -0.10322407 -0.032054104 0.75282854 0.28138995 -0.34326115 0.32217613 -0.7099481 -0.6205692 0.33407834 -0.04095354 0.31808257
pagina -0.064423986 -0.73263276 0.09770081 0.46320885 0.41385746 0.59966975 0.26696742 -0.67922354 0.5852329 0.26988223 1.6429598 -0.9148087 0.8152023 0.7989924 -0.18400311 -0.18081623 -1.1905129 -0.14113885 -0.53304243 0.12056358 0.18366021 0.51422983 0.1766479 -0.09068214 -0.5869777 0.12070731 0.47902107 -0.6721132 -0.023132766 -0.49195603 1.1768779 -1.2589545 -0.13246547 -0.6044754 -1.075162 0.88770795 0.30081427 -0.3734708 0.117129534 -0.29925418 -0.047270723 1.1334672 0.60499746 -0.02741303 0.17641117 -0.87974226 -0.6707 0.4135965 -0.8485076 0.64614546
norma -0.18362103 0.29485324 0.5912318 -0.6380105 -0.14189486 -0.27953306 0.6342595 -0.058680445 -0.20181116 -0.37622908 0.54010373 -0.23965864 0.17441146 0.119178094 -0.5469798 -0.2585077 -1.1582057 -0.30301508 -0.70787746 -0.6290116 0.2810131 0.49439418 0.8096341 -0.065193534 -0.27163178 0.45486942 -0.27095875 0.32439575 -0.07251171 -0.54130906 0.2997803 -0.30466807 -0.22438951 -0.2528458 0.58838505 -0.046756472 0.10408073 0.054435775 0.83935297 -0.041740112 0.28271273 -0.5939196 0.011569588 0.31397286 -0.53560543 -0.2656562 -0.38310635 -0.59168726 -0.34524018 0.9462346
misura -0.548654 -0.003734675 0.4009547 -0.059746463 0.06340234 -0.2522085 0.23379958 -0.17347226 -0.36217746 -0.5034105 -0.2682039 -0.6412799 -0.053794123 0.31608272 -0.110763 0.30936572 -0.14519714 -0.9555979 -0.6343779 -0.12438348 0.12219923 1.005891 0.5015335 0.5143305 0.04414495 -0.12875651 0.501092 -0.9120777 0.3123062 -0.2887516 0.11047114 0.0656797 0.2291254 0.22427401 0.16753666 -0.104042 0.16744407 -0.21043263 -0.098878734 -0.6482317 0.21819481 0.11843011 0.080366276 0.07136337 -0.42401314 0.42951274 -0.5402012 -1.1232007 -0.17250702 -0.056281682
tale 0.035574954 -0.68877953 0.5198634 0.18101893 0.66539323 0.13962968 0.08327279 0.41260484 -0.44066304 -0.4396679 -0.15279377 -0.401637 0.25232005 0.60829765 0.056985002 0.2243177 -0.2986004 0.17925712 -0.51072663 0.12930317 -0.07862542 0.34975576 0.37669155 0.62681323 0.29062462 -0.110469736 -0.2663039 0.28712013 -0.1686136 -0.7279015 -0.1512606 -0.30872774 0.2163893 0.51523083 -0.15146981 -0.44054896 0.28101113 0.0725057 -0.054131135 -0.5228162 0.15488033 -0.16003792 -0.121419385 -0.15038463 0.36372977 0.43730435 0.08152038 -0.03879343 0.53128874 -0.34488565
dovere -0.10048568 -0.3212333 -0.13985053 -0.0096026305 -0.0929588 0.25321674 0.54214215 0.010116498 -0.168467 -0.6332607 -0.6444975 -0.2105764 0.48273456 0.2491036 0.2035837 0.34355813 -0.49188268 0.0070393193 -0.38932994 -0.13974568 0.34419522 -0.59716904 0.7540333 0.91790396 0.27332884 -0.10976373 0.19773121 -0.26288635 -0.8620978 -0.41306892 -0.1703264 -0.6801984 -0.4830915 0.14511903 0.009234619 -0.08942968 -0.24081442 -0.4550286 -0.19321091 -1.0103557 0.28782707 -0.36700124 0.07660957 -0.059391234 0.12739491 -0.30379888 0.15961958 0.11392771 0.3151746 -0.0960157
controllo -0.20540938 -0.8475434 -0.58528495 0.37525082 -0.37546206 -0.31653646 1.3069662 0.44318986 -0.38468137 -0.37585697 -0.06051008 -0.54034156 0.58679765 0.49724182 -0.012818189 0.5803106 -0.28420594 0.07748444 -0.6961251 -0.3052529 -0.32945338 0.9024355 -0.31629568 -0.48736715 0.0751131 -0.06661169 -0.77812415 -0.28166443 0.4043654 0.15497872 -0.15261856 0.12662673 -0.5141285 -0.26699868 0.5877417 0.70142823 0.45435843 -0.10349697 -0.2973866 -0.56110615 -0.15152968 -0.01392865 0.45040846 0.40289015 -0.6139162 1.0675412 0.0014600803 0.24364749 -0.2517811 -0.05308341
consiglio -1.1710087 0.32651564 -0.42057046 0.18650544 0.6694822 -0.6297689 -0.09109802 0.08540069 1.004291 -1.2323885 0.14937073 -0.78598887 1.2185555 -0.11962131 -0.33985275 0.1758743 0.046900738 -0.10863863 -1.1521233 -0.0679306 -0.5231176 0.27102217 0.51133525 0.07828832 -0.7762205 0.044276234 -0.5990577 -0.41640422 -0.20928183 -0.41268134 0.36609623 -0.42270154 0.092809975 0.11487891 0.27163967 -0.40281218 -0.4641446 0.14204 0.17766577 -0.32971385 0.11664187 0.25366196 0.29023966 0.91142136 -0.46853623 -0.65469587 -1.0037209 0.87988114 0.83184373 -0.19274606
potere 0.029677177 -0.47777593 0.13672325 0.6327176 0.6066751 -0.60426974 0.83684355 0.03414737 -0.04313735 -0.07798157 -0.20145203 -0.4246403 0.02723154 0.36498487 0.13131191 0.052845106 0.14596273 0.07949955 -0.15609835 -0.51616365 0.26584446 0.17457357 0.648419 0.49041116 0.17822804 -0.25962198 -0.138472 0.0758455 -0.5336913 -0.43887424 -0.16705798 -0.4015628 -0.61453223 0.114909135 0.14920451 0.082627684 0.046980407 -0.27013215 0.3341376 -0.44651514 0.24565628 -0.18344285 0.21045347 -0.22557326 0.42863798 0.17184144 0.33692914 -0.02407333 -0.26583335 -0.0018557241
stato -0.61995673 -0.472756 0.30703488 -0.14153945 0.81393707 0.23804244 0.43290016 0.029355079 -1.002958 -1.098299 0.0372911 -0.5415303 0.006763645 0.28968728 0.026485931 0.56455076 -0.42594224 0.247748 -0.8011596 0.05306154 -0.23537065 0.61357474 0.20324332 0.3161136 0.23213291 -0.012470234 -0.20387459 -0.027597744 -0.44844335 -0.5805763 -0.8475761 0.26078632 0.2137698 -0.034145344 0.09534677 0.5740247 0.13468964 0.2411555 0.19329652 0.54079634 -0.06681512 -0.2811345 0.4033472 1.1253655 -0.119300574 -0.8112393 0.13706085 0.12367674 -0.94565386 0.13829371
agricolo 0.5327028 -0.17788194 0.19674528 -0.24037845 0.2633753 -0.34940153 0.4861545 0.45262837 -0.3499128 -0.39188904 0.61608154 -0.37827298 0.20627937 0.16608539 0.11833801 -0.33448088 0.0075767776 0.011724573 -0.764365 -0.30014136 -0.69712144 0.5749313 -0.30317083 0.31474575 0.07445293 -1.1832832 0.14339422 -0.7601736 -0.17219284 0.078946896 -0.23502927 0.24889295 0.018813526 -0.29628387 -0.34722573 -0.37405682 0.17495437 -0.54322946 0.36541387 -0.7982704 -0.72574973 0.5834016 0.18430632 -0.054578833 -0.31761563 -0.01624551 -0.51997274 -0.17352182 0.010204763 0.6800699
si -0.1607073 0.29148006 0.052820593 0.4943598 0.2137078 -0.8173175 1.0546327 0.36439374 -0.6157448 0.040599562 0.24654849 -0.16664138 -0.08603624 0.53982997 0.23462635 -0.53256196 -0.23767793 0.20433086 -0.572777 -0.28679135 0.07487537 0.20473513 0.65260905 -0.19852303 -0.015275156 -0.045030423 -0.24707146 -0.115848824 -0.6172657 0.15167463 -0.6779637 -0.5071708 0.4524978 0.21703358 -0.39276838 -0.5379627 0.14006746 -0.28951985 -0.37050602 -0.7012978 0.3189699 0.049875263 -0.36130303 0.2187488 -0.3477876 0.10535206 0.0076460894 0.16455735 -0.24513729 0.12191758
membro -1.0242813 0.0004374852 0.072588466 -0.14084467 0.9698574 0.22669744 0.5832064 -0.2989519 -1.2394669 -1.5598325 -0.07661967 -0.6545459 0.045241296 0.38391688 0.19099367 0.70935506 -0.40555683 0.29908025 -0.7037149 -0.18593095 -0.6230354 0.36233506 -0.123503976 0.70732844 0.51226854 -0.5776463 -0.58047795 -0.087770075 -0.12891334 0.06380503 -0.9328916 0.30809963 -0.32816592 -0.48724437 0.049295496 0.5419766 0.31530228 0.19585103 -0.20222235 0.42160314 0.0013705046 -0.82804495 0.2890055 1.1059952 -0.12922268 -0.76119375 -0.06451106 0.044055756 -0.73193216 0.0152466195
su -0.572491 -0.41121632 0.043611627 0.5816682 0.7239642 0.34363624 0.88866377 0.5572554 -0.10166462 -0.19568822 0.08295954 -0.56604624 -0.29494122 0.16745035 0.23373076 -0.69614434 -0.47158018 0.1350678 -0.83993274 0.097354375 -0.94544053 -0.3531496 0.0460702 -0.10626975 0.020597668 0.15958011 -0.9284563 -0.2773869 -0.26850793 -0.15400638 -0.10842926 0.17036147 -0.6086838 -0.13454042 -0.22056583 -0.23553126 0.545292 -0.22257854 0.90405047 -0.08429671 -0.06406667 0.083041795 -0.47189042 0.34209663 0.31104293 -0.682858 0.008016129 -0.46849683 0.3857772 0.11067511
programma -0.76328635 -0.6754537 0.48447028 -0.21139391 0.47400197 -0.19634299 0.418439 1.134018 -0.4904384 -1.6754531 -0.30047402 0.15812396 -0.06383886 0.55574113 0.58634263 0.028053112 -0.009119873 -0.60684913 -0.14364944 -0.045118097 0.22539745 0.56885016 0.986593 0.30941206 -0.3136489 -0.005754857 -0.18703862 -0.48879066 0.16080508 0.045038953 0.117625006 -0.09644367 0.030191967 -0.19018729 0.44655606 0.26884344 0.46670675 -0.3553458 -0.45884407 -0.037083767 0.77086544 0.2275291 1.096852 -0.33568418 0.20252429 -0.19570738 -0.59959626 -0.5055539 -0.28649157 -0.32986093
avere -0.29681024 0.12756409 0.32446885 0.24200694 0.7298741 -0.087240145 0.5721859 0.47317323 0.042684242 -0.614493 0.097479925 -0.6570613 -0.20422961 0.6690175 -0.20803572 0.32359952 -0.25788182 -0.59164274 -0.42963505 -0.6552596 0.1733602 0.13887393 -0.37022665 -0.7049168 -0.21849325 0.16574498 0.15136601 0.08862893 -0.30568668 -0.87275106 -0.834633 -0.85562944 -0.40053356 -0.72916895 -0.42816857 0.33942991 -0.4996785 0.4077141 0.01554236 -0.2540652 0.27677968 -0.20538948 0.16481471 -0.042376116 0.22016262 0.6843316 -0.03520738 0.28123763 0.65368676 0.22873208
sostegno -0.6937075 -0.010266843 0.22434066 -0.014495775 0.18778364 -0.25092188 0.51666206 0.49832428 -0.25484347 -2.0998144 0.47108346 0.049931005 0.005552499 0.13671024 0.3240017 0.069351345 -0.27008855 -0.40736407 -0.81775314 -0.28740624 0.40663493 0.3674452 0.030865058 0.36848053 0.25236306 -0.68076915 0.358358 -0.9782475 0.3182503 0.082017824 0.08579364 -0.08198849 1.0274287 -0.82856065 -0.015067421 0.052439526 0.8282807 -0.5556289 0.15627697 0.37429175 0.6459796 -0.45563394 0.90464103 0.50133383 0.17836398 0.15931104 -0.223304 -0.13633616 -0.10842378 -0.18593279
Europea -0.6527956 0.014898056 0.88647074 1.2598801 -0.79268014 -0.43572682 1.0351198 1.006291 0.07036739 -0.41374162 1.7572943 -0.42074713 0.4316706 0.73434156 1.6838644 -0.24512835 -0.9843169 -1.0163586 -0.912267 0.52937865 -0.89505464 -0.28752446 0.61288977 1.0522014 0.7358298 -0.67257416 -0.7833989 0.24369186 0.41473716 -0.5329813 0.9022491 -0.1756036 -1.269177 -0.029557815 0.08472599 0.7914999 -0.22453152 -0.22658612 -0.13608304 0.96389276 0.18340948 0.46223053 0.30413464 -0.37294894 0.7873066 -0.14253344 -1.0783921 1.1536131 0.24752761 0.55857474
relativo -0.48691404 -0.0860567 0.5564409 0.29844338 -0.04745282 0.57456136 0.36521566 0.32898283 -0.027784217 -0.776042 0.8667987 -0.888435 0.2705598 -0.044736754 -0.553053 0.37265292 0.028758476 0.5232376 -1.3406644 -0.819974 -0.40694466 0.68771833 0.051046822 -0.29987192 -0.0065710386 0.1801303 0.25783297 0.24807781 -0.45650768 0.4828513 -0.49973577 0.14174572 -0.28793377 -0.08611714 0.04786444 -0.09022479 0.04084812 0.13294351 -0.12052179 -0.2441134 0.040975966 0.6607777 -0.17406175 -0.23297323 -0.26331705 -1.0145817 0.39073113 0.05185674 0.5093905 -0.09265485
L 0.24740048 -0.8415467 -0.099833325 0.7022746 1.0488671 0.6011404 -0.015377098 -0.39930147 0.7714655 -0.6445179 0.9294111 -1.5895314 0.8807882 0.9628074 -0.038059086 -0.33760217 -0.7242411 -0.45368645 -0.5256315 -0.25121546 -0.38078633 0.82243335 0.22361577 -0.156185 -0.4833812 0.014513207 0.17203054 0.1734187 -0.41480258 -0.18100105 1.1143367 -0.93551135 0.2363681 -0.9297795 -0.31279665 0.22762649 0.62950885 -0.3891128 -0.11119884 -0.20804451 -0.4711994 0.39498094 0.05219493 -0.17274094 -0.07768124 -0.94589835 -0.99739474 -0.096897185 -0.49501434 0.5283657
: 0.06764431 0.26755628 -0.18895505 0.38257065 0.07849547 -0.15741265 1.2866066 -0.17127946 -0.5592992 0.24172242 -0.008357615 -0.014092259 -0.053216506 0.2971734 0.30469868 0.26532775 0.043320283 -0.22322267 -0.24149127 -1.3853343 -0.25598046 0.46498635 0.75067604 0.25347292 -0.26362398 0.33146617 -0.1790721 0.4146291 -0.8152463 -0.51070625 1.019433 0.00375852 0.012077565 -0.007810265 0.52011186 0.501317 0.3483571 -0.4320283 -0.09559269 -0.6897861 -0.20558424 -0.4079357 -0.29065272 -0.45540357 0.43606454 -0.37149084 0.038797688 -0.0038451278 0.55005765 0.34382832
/ -0.6509313 0.49469152 -0.7948626 0.56299067 0.02360117 0.23642428 0.16271658 -0.4456313 -1.0217483 -0.6463232 0.94853497 -1.3603431 0.80005044 0.4809959 0.7360211 0.44769397 0.22529426 -1.0877025 -1.8120377 0.31417054 -0.17405453 0.33125174 0.19497316 -0.33240074 -0.7432839 -0.20034559 -0.28878748 -0.6458778 0.2484753 -0.25724778 0.8683234 -0.35595468 -0.8255873 0.116812006 -0.23638621 -0.5561538 0.48014793 0.57436633 -1.2599969 0.015180047 0.5557686 -0.17116259 -0.5075347 0.50372326 -0.33695266 -1.136066 -0.434127 0.47626373 0.7227149 0.49721387
con -0.47068125 -0.37645626 0.49327382 -0.45086426 0.5741798 -0.18073435 0.46029562 0.49394765 -0.09436535 -0.063170895 0.54839706 -0.7664153 0.1714277 -0.0071582585 0.19230781 0.29687572 0.1545814 0.11021482 -0.42203173 -0.3122045 0.19724704 -0.10141224 0.196667 -0.07221548 0.40969345 0.123925485 -0.010270708 0.053449094 0.027872896 -0.68133664 0.39922765 -0.16918686 0.23545559 -0.23467214 -0.21709964 -0.021204636 0.095357455 0.1235138 0.29244372 -0.5530422 -0.24950513 0.39829692 0.005196898 -0.06127745 0.28116724 0.018810835 0.35771996 -0.65432674 0.084819146 -0.3847917
510/2006 -0.51475173 0.0049144337 0.36825332 -0.5715895 -0.7189024 -0.744285 0.34453267 -0.77995855 -0.5585204 -0.46686035 0.19118853 -0.650403 0.97101104 1.1156465 0.7508061 -0.36913165 -0.526645 0.16533859 -1.7129078 -0.1265693 0.5744378 0.0763343 1.1515261 -0.2944007 0.24815562 -0.48098698 -0.7934403 0.16130269 0.5144361 0.1672614 -0.33057985 -1.77838 0.082246594 -0.43126944 0.7459999 -0.1764825 0.4410564 1.2191223 0.22679518 0.05286612 0.5630022 1.6780264 0.4269876 -0.19677755 0.79986346 -1.1268815 -0.89055026 1.0859134 -1.3659317 -0.49904054
secondo -0.9629478 -0.17064135 -0.041861486 0.23251937 0.35786086 -0.57809997 1.1742656 -0.28244773 -0.42835817 0.3328731 0.11771835 -0.35508603 0.6082431 0.4010241 -0.52093303 0.5137923 0.09404564 0.51936334 -0.4319208 -0.028106866 -0.1035687 -0.08740735 0.4858233 0.1876426 0.4656597 0.49757645 -0.25672096 -0.15415245 -0.2522155 -0.3511794 0.4618165 -0.4791939 -1.0762675 -0.29023933 -0.042668093 -1.1625091 0.25347075 -0.012406006 0.38169366 0.6012706 0.4105614 0.7002728 0.07746113 0.18059964 0.123594314 0.6702826 -0.8823128 -0.6898997 0.124581724 0.97821707
animale -0.13951741 -0.5135679 0.3351158 -0.61008024 0.32575658 -0.2605023 -0.14467163 0.4533241 -0.08186014 0.31902227 0.43740308 0.023410287 -0.0044501973 0.8536913 0.29188487 0.07853895 -0.49712744 0.08049253 -0.7466948 -0.6425855 -0.09546607 0.23741606 -0.49237755 0.44802636 0.020874629 -0.32710052 -0.32048634 -0.9741926 -0.80561304 -0.19759488 0.33323592 0.050767347 -0.32571524 0.6694739 -0.18232752 -0.19994408 0.74736434 0.27953884 -0.60573846 -1.3770199 0.35250124 0.087848075 0.29140362 0.53775185 0.06310353 -0.023369782 -0.78687423 -0.33026585 -0.41276976 1.0799036
europeo -0.9116775 -0.5457878 0.057954427 0.76815426 0.81389785 -0.817421 -0.6091853 0.2788287 -0.08784331 -0.947031 0.22648306 -1.2128056 0.60066515 -0.24027534 0.34070668 -1.192625 0.052688263 -1.3519324 -1.7380501 0.47297877 -0.6714249 -0.33161348 0.15736733 0.100242704 0.3361541 0.6193488 -0.39286256 -0.48413536 -0.18959126 -0.39207357 -0.23177943 0.37624797 -0.76961637 0.056273833 -0.30335224 0.41177076 -0.32608974 0.8999397 0.46722576 -0.45729214 -0.7945732 0.019052986 0.49136746 0.42201248 -0.31744796 0.06736455 -0.21518348 1.6060928 -0.23156288 -0.84670985
autorità -0.84924835 -0.5032152 0.09280733 -0.121796064 -0.18913025 -0.81003433 0.75975484 -0.11531703 -0.5129884 0.026342954 -0.6668886 -0.45275286 0.14179972 -0.07347723 0.17819913 0.48219448 -0.6822873 0.17261702 -0.82597023 0.40516084 -0.029896764 0.9626969 -0.1966703 0.54122883 -0.26009163 -0.10722718 -0.2972824 0.08572578 -0.42746478 -0.17625086 -0.08223437 -0.06539236 -0.67250854 -0.5727147 -0.20564878 1.1590198 0.6622237 0.4000515 -0.100494854 -0.5570252 0.06870643 0.10686022 0.35516706 0.756878 -0.15130278 0.5833496 0.09103671 -0.052115448 -0.14981768 -0.49229243
vedere -0.2110456 1.1335866 -0.15491293 1.224192 0.49531847 -0.25406623 1.5520881 0.04087632 1.0792742 -0.76444095 -0.3211434 -1.0203458 1.1260861 0.7179493 0.89835125 -0.95251375 -0.83844066 -0.8891683 -2.1785955 0.7870087 0.67741793 -0.22735578 0.56416184 0.54598325 -0.02559414 0.29063645 -0.09671507 0.3016248 0.078969896 -1.5859867 0.25989625 -0.41581336 0.41001108 0.117943816 0.45796368 -0.20254469 -0.3350031 0.71811813 0.4407905 -0.14073345 -1.5967636 0.21171346 0.89991444 -0.21267782 -0.5077259 -0.7222894 0.113604054 0.7967185 0.15964483 -0.41096446
primo -0.048348054 0.60927516 -0.3095132 1.4248526 -0.619076 -0.3486983 0.9142666 -0.17773052 -0.95329696 0.018737126 0.103246346 -0.5513919 -0.21582277 -0.45225713 0.43750012 0.008822728 -0.6125212 0.7304163 -1.087252 -1.3236964 0.69396734 -0.60900193 0.06402628 0.046040453 0.25057912 1.5042039 0.5658955 0.30399612 -0.2284474 -0.36996973 0.09744215 -0.49017844 -0.29872486 -0.30712044 -0.64076245 -1.0072997 0.060545485 -0.42404705 0.42874452 0.04984422 0.12228628 0.6877603 1.0509396 0.3182103 1.428711 -0.14319241 -1.2053652 0.13937578 -0.30335182 0.5309309
comma -0.24374282 0.4010345 0.51145434 1.3168184 -0.050819207 -0.58569264 0.5232643 -1.2431873 -0.19059081 -1.1936204 0.50677127 -0.120203674 0.20546529 -0.34518787 0.41133934 -0.17193528 -0.37874737 0.16709332 -1.135007 -0.66620696 0.62572366 0.11307344 0.8580952 -0.28849658 1.0383028 1.1322496 -0.200159 0.8558707 0.030591125 0.12667505 0.39066985 -0.38279963 -0.3700866 -0.33773845 -1.0843238 -0.73690426 0.45915565 -0.15099165 -0.01440865 -0.41177267 0.012967623 0.5386077 0.8864737 0.84820515 1.4334753 0.4112162 -0.851129 0.49208412 0.15685484 -0.2829159
ufficiale -0.75164425 0.75673294 -0.1671758 0.5423836 -1.2914945 0.42507753 0.27514008 0.06339699 0.28860086 0.14876825 1.0969785 -0.19826172 0.7363845 0.8633473 1.3256413 0.20391545 -1.1221235 -1.1053632 -1.609679 -0.62054527 -0.81293064 0.70595556 0.17755786 1.3317693 1.1491333 -0.5779935 -0.63954663 -0.54925925 -0.43917975 -1.1591549 0.58898026 -0.64539015 -0.7316894 -1.0992582 0.2637935 0.94389856 -0.31736067 -0.18498728 0.64740586 0.27440727 1.0529891 1.299841 -0.30576944 -0.57148075 0.7874235 0.12533005 -0.5721495 0.14562774 -0.5879483 -0.7777522
specifico -0.52344954 -1.518597 -0.010170406 0.104363 0.1489005 -0.20690691 0.52623075 0.5058042 -0.4417191 0.02178347 0.980138 0.14903352 -0.59288585 0.26046968 0.33543688 0.32543665 -1.1846169 0.004278535 -0.56165683 -1.1498889 0.4027568 0.008938571 0.42313793 -0.13324729 0.52022034 -0.7995545 0.090269215 -0.7518791 -0.15288815 0.4544725 0.18925638 -0.120855406 0.41938683 -0.015709685 0.7147464 -0.28749347 -0.18791191 0.08732965 0.44001487 -0.7371204 -0.05003361 -0.33172798 0.026104383 -0.03892224 0.3063893 -0.154509 -0.4849715 -0.048183415 0.09842614 0.454794
adottare -0.7462875 -0.6261029 0.35705736 0.4495652 0.50578344 0.115028486 0.63066477 0.25625622 -0.80364555 0.032877963 -0.22033998 0.44166043 0.3729164 1.0655863 -1.3585991 -0.08103179 -0.7906479 0.5394114 -1.4038944 0.6071655 0.45073932 0.6831715 1.2681286 -0.26047555 0.41414955 -0.09129954 0.18551068 -1.0395207 0.09407565 -0.071032345 0.8427721 -0.08690572 -0.7919972 -0.14470038 0.77386945 0.8234913 0.07772446 -0.47762686 0.84274215 -0.094176985 0.36336917 -0.038720243 0.78825366 -0.17899 -0.44796535 0.4309505 -0.5601628 0.59074837 0.31592974 -0.055250227
allegato -0.012452176 0.20739467 -0.48627993 0.045335732 -0.89572316 0.40212312 0.7704902 0.39536777 -0.7768831 -1.3609103 0.44838375 -0.1571143 0.3269869 0.23212083 0.9521139 0.61075383 -0.067526236 -0.34266403 -0.5436223 0.4136599 -0.21615408 0.3273954 1.2806926 1.3048712 0.23040988 0.7937939 0.51634926 -0.53010494 -0.09431315 -0.70729554 0.5963078 -0.6832939 -0.8067812 -1.397334 0.77059823 -0.82129616 -0.24709086 -0.18043718 0.2186612 -0.16705258 -1.5563023 0.04238128 -0.23872736 -0.019701324 0.6068227 -0.09619051 -0.018963475 0.57569754 -0.14421098 0.26324156
loro -0.19502103 -0.4491824 -0.27705437 -0.1790621 0.6398764 0.114469565 0.41690624 0.105182804 -1.2131923 -0.7369193 -0.016676573 -0.2597694 -0.035549328 0.37630695 0.23989089 0.44809777 -0.45518953 -0.22960296 -0.3995173 -0.19687875 -0.01807394 0.056753807 -0.5247375 0.8051378 -0.13275312 -0.30988723 -0.05270887 0.23039216 -0.68515456 -1.0376405 -0.1368241 0.48393586 -0.45450285 0.23268086 0.008308969 0.17575313 -0.079023935 -0.3517119 0.1702058 -0.4201968 -0.22569285 0.3053568 0.09332313 0.3260377 -0.17173105 -0.28998193 -0.17794038 -0.14657055 0.27268103 -0.43072933
gazzetta -1.5511792 0.5650669 -0.64859396 1.5699744 -1.3957088 -0.44995746 0.14784065 -0.50987047 1.1394142 -0.063066915 1.27384 -0.37707856 1.2231656 1.1615206 0.9691266 0.14213927 -1.5644015 -0.49712688 -1.5352699 -0.008575223 -0.47621083 0.20393199 0.11372028 1.2220918 0.70132846 -0.47166833 -0.066183455 -0.22028792 -0.386946 -1.1614155 0.20921892 -0.00012037606 -0.9195387 -1.0467216 0.08066011 0.91647047 -0.07986586 -0.081349015 0.08106158 -0.16250904 1.1620082 0.9522294 0.41106078 -0.38587248 0.8642339 0.6305039 0.09798309 0.1440686 -0.70405877 -0.114185795
atto -0.91388685 -0.12440387 -0.6816084 0.38599417 0.9426736 0.27716374 0.5191322 0.8034432 0.14159599 0.23213391 0.31755143 -0.4501098 -0.12702793 1.0079962 -0.7159541 0.3651444 0.18799897 0.43110874 -1.4106942 0.5298516 -0.10462397 -0.045092043 1.14501 0.20040052 1.1987398 -0.41960996 0.04692388 -0.13350686 -0.37626848 0.17931059 0.08716041 0.20418735 -0.618684 -0.008153397 0.28315794 0.86658275 0.39759398 0.62253785 0.39215633 -0.48716778 1.0762085 -0.45013335 0.5750057 -0.8985476 -0.13985424 -0.18664223 -1.4758978 0.25925368 -0.40903446 0.16641304
regime -0.30360627 -1.0132638 0.86806387 0.09852976 0.2337178 -0.037254497 1.0301586 0.120714754 -0.32620192 -0.83576727 0.16915444 -0.013587036 -0.012041193 0.5112572 0.4249505 -0.120100796 -1.0013096 -0.34117615 -0.34520727 -0.28664497 -0.07563585 0.76069736 0.42406324 -0.26682803 -0.28641856 -0.93487185 0.5390572 -0.44688004 -0.3856097 -0.02510213 -0.61833346 0.9225241 0.096832916 0.24260254 0.49694234 -0.06647251 -0.00841582 0.3862387 -0.44373965 -0.36943504 -0.67795265 0.07316577 -0.22770473 -0.43192795 0.29934928 0.37574822 -1.2042809 0.00869704 -0.38283288 0.47396868
regione 0.75312877 -0.1261162 -0.26276454 0.23259953 0.68222576 -0.036475558 0.8486302 0.7679457 -0.41192794 -0.93509024 -0.7650633 -0.29486102 0.581412 0.5219827 -0.13281961 0.63045096 -1.3989965 -0.83955747 -0.51173687 -0.25498176 -0.14230132 -0.081723824 1.0407395 0.49152824 -0.12854366 -0.12380737 0.19686128 -0.8811283 0.290534 0.44472328 -0.18734369 0.05927129 0.026679564 0.22914745 -0.6029074 -0.11493725 0.07932662 0.022623695 0.17363065 0.37782112 0.09045529 0.56660676 0.017686553 -0.3467709 0.017846333 0.10517661 -0.14897346 -0.1169215 0.10054278 0.28105468
protetto 0.23098183 0.64427704 -0.78149694 -0.8112658 0.04787765 0.20995428 0.5285123 0.09238681 -0.013468506 -0.3985099 0.18598819 0.1796013 0.60170615 0.53930426 1.7122056 1.1966629 -0.89259714 0.42931923 -2.0423508 -0.29474825 -0.17902127 -1.044067 0.5358639 -0.0070242053 0.13961983 0.60371727 -0.17764352 0.27371374 -0.48157427 -0.80848205 0.04420395 -0.22702493 -0.62471753 0.008227574 0.60496205 0.24818529 1.0532775 1.4123431 0.34603667 -1.1379128 -0.14921267 1.9555589 1.2434905 0.04842885 0.79334193 -0.17704542 0.14822981 0.854521 0.35799646 0.6108612
condizione -0.11500044 -0.441155 -0.65789574 0.21239893 0.7975789 0.22766034 0.6698314 -0.26887178 -0.34466538 -0.24349202 -0.0071208808 -0.52244794 -0.09768941 0.04794274 -0.20274559 -0.0945509 0.055658743 -0.2649682 -0.28249413 -0.22617097 0.961661 0.33642173 0.53341264 0.79918176 0.83741844 0.08481827 -0.27757972 -0.36285704 -0.10557221 0.18537426 -0.3578985 -0.11118454 -0.5204728 0.14365506 0.17999709 0.063338436 0.35991547 0.3573064 0.12653045 -1.2692766 0.15545703 0.20521088 0.17322592 0.52218515 -0.15236866 -0.035766017 0.30784097 -0.33302158 0.15843734 0.8271409
b 0.20433787 -0.30748716 0.3948678 0.031073363 -0.27814972 -0.19008178 0.46621302 0.11727923 -0.5642246 -0.23623726 0.15156747 -0.27290276 -0.032693643 -0.51113033 0.03252587 -0.27588814 0.03801418 0.7115924 -0.90085673 -0.90899616 0.8442241 1.0365528 1.033155 -0.7141893 -0.2999558 0.12907374 -0.2638969 -0.32651362 -0.3335775 -0.04131384 0.5004531 0.0062145116 0.20383617 -0.21130429 -0.104208514 -0.08855588 0.40955827 -0.19313154 -0.74568605 -0.46831915 -0.33082113 0.30658174 0.10758096 0.75852513 0.8872872 -0.19861269 -0.0017951662 -0.16159543 -0.10432213 -0.19026409
origine 0.1116151 0.107551396 0.15033823 -1.0482695 0.4860598 -0.049249172 -0.15070365 1.0315725 0.5960403 -0.40091482 0.5064667 -0.51366556 -0.16934347 0.53428704 1.158453 0.35434932 -0.8190187 -0.3681039 -0.8464017 0.14591004 -0.10078724 -0.062220253 1.0345 -0.21649659 0.5459879 0.809228 -0.047786538 0.5241354 -1.000861 -0.16223688 0.6060158 0.17959972 -0.9831493 0.40248138 0.54017967 -0.65703094 1.1279593 -0.2873401 -0.3640532 -1.6650956 -0.47912377 1.4803126 0.09240148 0.54333454 0.9889083 0.16272318 0.07711652 0.21566854 -0.38025776 0.5994226
prevedere -0.9484239 -0.39202723 -0.07601587 0.18750457 -0.33306465 -0.18622181 0.045754403 -0.28231022 -0.21482968 -0.37092996 0.20152827 -0.8870495 0.36544767 -0.012976655 -0.1490936 -0.5664613 -0.64987814 0.4931403 -0.764014 -0.21210898 0.033837426 -0.099114686 0.45432758 -0.09109219 -0.2136864 -0.49589014 -0.020835439 -0.47441736 0.42988268 -0.79610425 -0.03676426 0.66936904 0.49952966 0.27115947 0.013911689 0.013270185 -0.013984354 -0.17124614 0.2522908 -0.263668 0.19485489 -0.038039394 0.012463728 -0.18347192 0.25185746 0.3047045 0.17314135 -0.31614572 0.39001304 0.6921645
applicazione -0.6018703 0.23142554 0.94586205 0.21836115 -0.32459897 -0.4329412 0.14057606 0.3339333 -0.28783086 -0.70692515 -0.22414137 -0.955272 0.2697429 -0.1403188 -0.6844512 0.153805 -0.17625673 -0.07978485 -0.9207572 -0.25094992 0.2888554 0.23971975 0.737299 -0.045938395 -0.13488476 0.26682517 -0.17302407 -0.12547891 0.49582103 0.4925274 0.066716254 -0.07368662 0.13993487 0.17696904 0.64165664 0.43859032 0.08073711 0.22355846 0.7649515 -0.49425158 -0.2941219 0.50563633 0.24463366 0.13422672 -0.027225967 1.0211561 -0.7338403 0.0351864 0.35455608 0.56208634
aiuto 0.031558696 -0.10739826 -0.26670548 -0.656833 0.51938146 -0.17109482 0.8026646 -0.13504964 -0.39958346 -0.6987774 0.89493054 -0.3439545 -0.29174367 0.28407043 -0.18991289 -0.009215323 -0.9202344 -0.6030525 -0.540673 0.2936649 0.28025836 0.7266308 0.70214003 0.6707356 0.5481858 -0.2313585 -0.18368872 -0.5676569 -0.11193901 -0.0043376293 -0.6496855 0.39540124 0.0321827 0.16840881 0.34280077 0.46375367 0.14777006 0.14209095 -0.022346627 0.14602284 -0.12482691 -0.08648487 0.0028094945 -0.2750515 0.82405454 0.0095328055 -0.05492208 0.28767148 0.5885109 -0.0763258
applicare -0.3143006 0.32420957 0.5443607 0.91314137 0.32842377 -0.56735724 1.0461985 0.35510755 -0.4955717 0.020173242 0.46435398 -0.1821438 -0.27145416 0.26876548 -0.764613 -0.3454679 -0.65282434 -0.41265202 -0.3499928 -0.748332 -0.16802067 -0.5880132 0.9541229 -0.08365352 0.013688661 0.023472374 -0.41862705 -0.3020705 -0.107891336 0.070727676 -0.28476775 -0.47199684 0.10105911 -0.26291794 -0.47611442 0.018471261 0.41461864 -0.3471089 -0.4808629 -0.2534852 -0.22025014 0.3047696 -0.4794266 0.5455009 -0.31045413 0.80458504 -0.26409853 -0.07732495 -0.50396365 -0.13590868
organismo -0.7460525 -0.7667726 -0.3179028 -0.10708001 0.27462366 -0.8530784 1.1557616 -0.25425407 -0.81736887 -0.044671066 -0.50427467 -0.28000167 0.25591898 -0.24482964 0.19363597 0.25495523 -0.398695 -0.27421415 -0.6033218 -0.1563144 -0.34642276 0.8711092 -0.5677324 -0.07968918 0.015162238 0.30111885 -0.18479909 0.2209025 -0.23533913 -0.4786663 0.745135 0.067060605 -0.9289247 -0.49627253 0.23897538 0.6461203 0.785322 0.6864692 0.016539672 -0.77448326 0.14853883 0.034602325 0.1535846 0.38268316 -0.20760903 0.20448536 -0.15176989 -0.16441719 -0.121510595 -0.4712622
stabilire -0.84947133 -0.058299903 0.22118367 0.53112316 -0.033169463 0.34176472 0.21342582 0.3573207 -0.56555426 -0.667851 -0.10236518 -0.20569217 0.638346 -0.5503668 -0.65955836 0.16930073 -0.36972788 0.3934318 -0.8101694 0.1652662 -0.20228161 0.3981408 0.65082777 -0.4411152 0.43013802 -0.85918367 -0.06904587 -0.068416625 -0.33949772 -0.2723446 0.06961158 -0.06884338 0.44084197 0.35361803 0.37438104 -0.47935316 0.5594254 0.36111337 -0.26606557 -0.33125737 -0.49328604 -0.39680198 0.12186063 -0.3835502 0.19233769 0.63977736 0.036286775 -0.16359442 0.31678173 0.9751323
domanda -0.2727498 0.34467438 -0.41576916 -0.0049080616 0.024146207 -0.47736737 0.8566377 -0.0914764 1.0589815 -0.7147951 -0.4344488 -1.1785173 1.1101992 0.6462685 0.055947363 0.19319364 -0.9569024 -0.11229115 0.21279372 -0.6674635 0.32346338 1.2988391 1.2368588 -0.39026478 0.1812113 0.41504255 -0.60957384 0.30896026 -0.74893737 -0.92819643 -0.10161002 -0.23567607 -0.30051726 -0.13719687 0.62321043 -0.55276614 0.44617134 -0.16322723 -0.4771045 0.34563124 0.52955174 0.829851 -0.5370042 0.0039568204 0.7125403 0.023452112 -0.15678175 0.23911706 -0.2604487 -0.24277979
senso 0.52319276 0.6253506 -0.0011563302 -0.6392214 0.043303188 -1.0863609 0.7227212 -0.17012589 -0.09054308 -0.40907532 0.7170436 -0.6542739 0.6048685 -0.23024401 -0.033719216 -0.36739373 -0.44122243 0.61344004 -1.4155667 -0.46110958 1.0936824 -0.100961424 0.37886494 0.46292928 -0.5613037 0.043094967 0.3967926 0.9748965 -0.5844877 -0.67593455 0.5818517 -0.95614755 -1.0429951 -0.846873 0.4245955 0.304631 -0.5543303 0.85167783 -0.5930535 -0.5361037 1.6089978 -0.23295496 0.024502682 -0.21494402 0.15587623 0.15111755 -0.57111907 -0.6673113 -0.16705327 0.21331854
3 -0.15311006 0.16496395 0.66823643 -0.2570145 -0.21749508 -0.32555884 0.4441803 -0.6250013 0.118450455 -0.15970974 0.3196987 -0.47856885 -0.24846126 0.022151547 0.063818134 0.36052522 0.107200295 0.1192125 -0.9725349 -0.08054146 0.49586105 0.40400597 0.840129 -0.12089154 -0.08688854 -0.4749049 -0.6076653 -0.082255244 0.30580458 -0.40745908 0.14849699 -0.30706555 -0.74750584 -0.5239077 -0.6571329 0.07844818 0.11588836 0.15893067 0.15716194 -0.2562792 -0.23297036 0.21089439 0.14037453 -0.14194727 0.11540935 0.00900788 -0.6357317 0.5006532 0.14479749 0.36616078
trattato 0.58899087 0.48341918 -0.015734598 1.0338196 -0.47071016 -0.5270765 0.2902911 1.0255866 0.25586924 0.5396837 1.174816 -0.4301953 0.074511066 0.7839118 0.14587998 -0.18986131 -0.8901158 -0.0062592844 -1.003456 -0.0846842 0.38932836 0.41711423 0.73412645 1.5716286 0.5644208 -1.5025622 -0.4497923 0.29868385 0.4789715 -1.1374545 -0.46755612 0.1023507 -0.11961393 0.21156178 0.30603504 -0.0111890575 0.372091 0.24962619 0.7387787 -0.78815657 -0.7969454 0.109131284 0.4669704 0.3585915 -0.85714513 -0.35485694 -1.4778849 0.08038998 -0.36671883 -0.43357313
modifica -1.2803205 0.21869038 -0.144392 0.13672884 0.1921999 -1.5041851 0.36750513 0.5864925 0.08349275 -0.70902115 0.20124353 -0.585003 -0.5529448 0.108405486 -0.45296842 1.0004816 -0.6941076 0.6636032 -0.56260043 -0.25804412 0.15592885 0.16689047 0.1965251 0.13315797 0.73330146 0.29121467 -0.2408013 -0.5542877 0.29611215 -1.0739602 -0.09847966 -0.19707939 0.77731574 -0.45517206 1.0727926 0.9173851 -0.054368354 -0.14787394 0.22922052 -0.5979469 0.52248234 1.8173778 -1.2144145 -0.19695306 0.05533783 -0.43540695 0.43437564 0.6703429 0.31572857 0.089999154
approvvigionamento -0.10779451 -0.61829054 -0.5523109 0.64483297 0.034848403 -0.2954388 0.8859146 0.20044771 -0.22148964 -0.02002734 0.2919294 0.07966585 -0.26571202 0.4040303 0.151535 0.6352684 -1.059097 -0.0628449 -0.420454 -0.5196966 0.21707597 -0.08638332 0.7938531 0.48321807 -0.23628417 -1.5111374 0.88035727 -1.1987511 -0.18392484 -0.5183858 -0.5564458 0.8433762 0.16199955 0.4219506 0.026164088 0.68064886 0.02050872 0.35743487 0.0106108105 -0.19960843 -0.18426187 0.54073304 -0.108567245 0.36468706 0.83184946 0.0679828 -0.815524 -0.52713233 -0.08838668 0.28178814
esecuzione -0.8623174 -0.27690476 0.40910745 0.00044957062 0.53830445 -0.7501146 0.35291016 -0.35205624 0.19661388 -0.43756604 -0.03418909 0.2412488 0.79637 0.16658297 -0.29565087 0.46207792 -0.043011125 1.4680482 -1.0086724 -0.030414494 -0.5743488 0.9245861 1.0420802 0.56166804 0.54752535 -0.10935888 -0.7367947 -1.0018116 -0.39424476 -0.6513661 0.19952868 0.013952336 -0.26209027 -0.59511864 0.8757731 0.9047978 -0.055238623 0.07035693 0.27622634 0.021566028 -0.5698054 -1.1454504 0.89214104 -0.77348393 -0.06828518 -0.013219583 -0.84370995 0.024579342 -0.024036665 0.39030272
particolare -0.72904533 -0.16361395 -0.0026090136 -0.10920375 -0.11910498 0.02279196 0.066966765 0.61013114 0.29016668 0.14646496 0.18840906 -0.12844248 0.2938326 0.6194998 -0.13651846 0.21062908 -1.1966437 -0.16247477 -0.68422455 -0.40200186 0.8621683 -0.07863418 0.21608268 0.012494913 0.042300846 -0.86403126 -0.71143043 0.26338267 -0.43354794 -0.023578517 -0.23204802 0.06975805 0.31573266 -0.071554944 0.13390075 0.098558545 0.21683468 -0.46008715 0.45131183 -0.9076544 -0.66466075 0.26854503 0.7988947 0.3958554 -0.27772886 0.2691686 -0.07043849 -0.4214348 0.43580022 0.13308094
de 0.11816241 0.8635672 0.41760904 -0.20990108 0.74668723 -0.86116356 0.81540906 0.2588942 0.6457595 0.23615488 0.7025439 -0.4396483 0.8746858 1.1038156 0.62922263 0.6205138 -1.0813103 -0.17517392 -0.9632264 0.8221664 -0.7327346 0.97213274 -0.597188 0.49006125 0.45803574 -0.15046422 -0.41147038 0.37364298 -0.12664294 -1.2693459 0.61932814 -0.41761756 0.49304911 -0.9041249 -1.2725668 0.009726169 1.0628041 1.1455743 -0.47802198 -0.33406934 0.06803278 1.1854173 0.40218553 0.057527516 0.976169 -0.01766169 0.55466086 1.6253315 0.7281109 1.5342722
alcuno 0.1696233 -0.38943782 0.39122468 -0.019082634 0.9802549 -0.9095759 -0.48683393 -0.28672466 -0.21395408 -0.7664355 -0.3251059 0.042341735 -0.32032388 0.1134499 -0.84210646 -0.2824695 -0.56966406 -0.723101 -1.3572265 -0.53940195 -0.34934363 0.51278764 0.11760038 0.16711399 0.7212055 -0.71526974 0.5750973 0.17554595 -0.39826402 -1.3032776 -0.99981576 -0.050581463 -0.7690292 -0.48879406 0.20577826 -0.36591586 0.22951469 -0.0042740526 0.7903253 -0.1952563 0.09537613 0.59625834 -0.36290076 -0.73371845 0.5693834 -0.082889624 0.082918875 0.6221717 -0.045472782 0.33935973
lettera 0.14922373 0.4079154 -0.39774856 0.42424574 0.20031312 -0.10402365 -0.14974649 -0.62184733 -0.58962464 -0.24847518 0.09545625 -0.6728663 0.6663495 -0.66578 0.109562576 -0.29471093 -0.23450384 0.31652611 -0.8053072 -0.77811646 0.6976911 0.84733176 1.0402105 -0.3461945 -0.08270346 -0.43094403 -0.9050705 0.06605321 -0.39477658 -0.31603137 0.5963184 0.0024999147 -0.2173027 -0.36306715 -0.18809775 -0.58080316 1.2072167 -0.57776934 0.06188479 -0.14266008 -0.7777712 0.25024068 0.25917158 1.205826 0.5769306 -0.4076316 -0.36089188 0.037409153 0.5437747 -0.6736817
se -0.19419663 -0.25207305 -0.4235955 0.45247534 0.72401655 0.09959926 0.5313662 -0.32556975 -0.66940993 -0.10344359 -0.5087846 -0.6997958 -0.44733635 0.3484588 0.22330213 -0.28373885 0.12057665 0.30136263 -0.5409097 -0.19484916 0.85453975 0.34955028 -0.037440587 1.1094644 -0.03490698 -0.053992856 -0.24887668 -0.4682745 -0.70362836 -0.8036597 -0.33707708 -0.22737768 -0.18117379 0.3703904 0.28303343 -0.19268428 0.33882394 0.21673842 0.41220236 -0.7723139 0.38979685 0.1223275 0.15463857 0.13929246 0.43263867 -0.2752389 -0.21286185 -0.2147603 -0.33182544 -0.59186447
terzo 0.276199 -0.7952674 -0.7984006 0.19806312 -0.17423643 0.04424239 1.0589811 0.21306787 -0.90206313 -0.15043016 0.22095215 -0.3356523 0.04429776 -0.47517008 0.17318112 -0.06606889 -0.7807819 0.37742722 -0.34164432 -0.25780505 -0.12931696 0.8457946 0.80895585 -0.3221367 0.4155831 -0.16780053 0.28850648 -0.08212191 0.3312962 0.038319208 -0.12218849 0.033205625 -0.33169147 0.041363593 -0.9415719 0.38595662 0.18314739 -0.0077341553 0.502798 -0.5859986 0.7195814 0.76220995 0.6701584 -0.21634796 0.17981589 0.37705076 -0.7687445 0.19067816 -0.74707705 -0.7554466
presentare -1.7001276 0.39710334 0.21407606 -0.049878836 -0.18980047 -0.65074503 0.47761774 0.25204408 -0.38617122 0.032353822 -1.09329 -0.58526736 0.28512934 0.3004909 0.20192926 -0.25346953 -0.71600044 0.37437338 -0.691148 -1.3189527 -0.721045 0.29687184 0.6937015 0.04836681 0.44240156 0.6164699 -0.5105213 0.34745315 -0.8788322 -0.42345673 0.1134716 -0.43531144 -0.5150488 0.32455942 -0.103702135 0.03666521 0.4044326 -0.35732764 0.058282744 1.0496322 0.5117398 0.009911215 -0.19337623 -0.2898808 0.9103799 0.1259413 0.16801335 0.7495923 -0.19527523 0.24030752
indicazione -0.559528 0.4868539 -0.26668748 -0.7284197 0.18582638 -0.14284824 0.16606966 -0.091250606 -0.3131846 -0.060562145 0.56217957 0.15359055 0.46568727 0.415414 1.0074384 0.4305494 -0.7253488 0.8613928 -0.199799 -0.4171084 0.94832927 0.09937165 0.75826555 -0.5268939 -0.26021406 -0.2366886 -0.048131622 -0.16637929 -0.18179446 -1.4117204 0.76801324 0.7405484 -1.0653414 0.8465923 -0.09631316 -0.48278302 0.81184906 0.2543488 0.8405116 -1.2906029 -0.19696712 2.3818219 0.65497655 -0.35475162 0.3199995 -0.23753265 0.1951043 0.18507515 0.21155292 0.09314901
mercato -0.19499815 -0.38910526 0.39308783 -0.35129887 0.29091907 0.39448625 0.76983774 0.8516253 0.2795248 -0.9370775 0.12819178 0.2696189 -0.3365254 -0.6837824 0.5507201 -0.597333 -0.9863351 -0.22824937 -1.0215024 0.23279259 -0.26111874 -0.16360815 -0.24865393 0.45822498 -0.3829998 -0.69454503 0.041520342 -0.40258443 -0.12456759 -0.63727576 0.67463857 0.34432456 -0.19725712 0.64809877 -0.50536895 0.070823774 0.40749386 -0.6822675 -0.14463481 -0.9240619 0.01768732 -0.098902054 -0.46205637 0.533331 0.61698353 0.57774746 -0.67535543 0.22832748 0.21124062 0.1310791
caso -0.0360581 -0.04588733 -0.19319645 0.0050327205 0.7619047 0.10421316 1.0635079 0.7911974 0.04643932 -0.808734 -0.3866846 -0.37940475 -0.1681728 -0.4586397 0.28929776 0.19622786 -0.043381706 0.27553853 -0.6870526 0.013700944 0.8348915 0.34210345 -0.0779182 0.539652 0.51379687 0.49800766 -1.0482717 -0.24748378 -0.5096402 -0.053508084 -0.010167913 -0.44678918 0.15032116 -0.5312072 0.1899216 0.22178787 0.19329827 0.18295006 -0.050088625 -0.5638194 -0.61267954 -0.5144528 -0.039844394 0.45252985 0.98740137 0.61196417 -0.57640857 -0.17613421 -0.7453843 0.113071926
produttore -0.8088519 -0.14542782 -0.50633126 -0.94213176 -0.088473916 -0.3116617 1.123565 0.09712891 0.47567818 -0.83547 0.45059037 0.014986148 0.08657589 -0.2648383 0.5820689 -0.22452623 -1.3374736 0.3182886 -0.28648257 -0.79887766 -0.21238884 -0.16916868 0.13216844 0.42793584 0.26468733 0.14948396 0.22499627 -0.6320061 0.059393536 -0.18951108 -0.80017394 -0.25183955 -0.39305967 -0.07400936 -0.6898167 -0.39847445 1.1946374 -0.2180872 -0.7173332 -0.21737838 0.2556801 -0.5739243 0.038043853 0.20812856 -0.12035103 0.65926963 -0.42791334 0.44528648 0.3407983 -0.1495005
procedura -1.1548456 0.2773671 0.1440932 0.5450656 0.24719733 -0.3389766 0.99654865 0.109088324 -0.6903666 0.2734112 0.87722015 0.31430033 1.1505934 0.9960721 -0.29978752 0.60981554 -0.36948764 0.560852 -1.1221619 0.7942595 1.2036241 1.5343757 0.6748803 -0.17009187 1.0226086 -0.9982528 0.55996066 -1.1252246 -0.040722564 -0.34040242 0.6153842 0.04743648 -1.01556 -0.7359315 0.16332953 -0.3728375 0.5844784 1.2562296 0.30910137 0.37548122 0.40480778 -0.85092944 0.40103152 0.55443543 -0.6164677 0.32970166 -0.7235007 -0.51437813 0.28085047 -0.014862655
altro -0.43039522 -0.7305973 0.3450953 -0.21194339 0.5041059 -0.09131211 0.40272066 0.8821755 -0.6478698 0.28284892 -0.11637708 -1.1727449 -0.33365622 0.24531065 -0.2835162 -0.09175949 -0.6131831 -0.19980666 -0.5385513 -0.26611465 -0.3463368 -0.2744573 -0.5149495 0.37157536 1.022301 0.14512733 0.022472017 0.054034594 -1.034639 -0.23638563 0.55981517 -0.15746887 -0.35059568 -0.25982597 -0.0464079 0.26680446 0.59053 0.21119529 -0.58010244 -0.5934329 -0.24016732 0.07126397 0.79680514 0.041397125 0.44532284 0.18779984 0.1962628 0.2342893 0.6357257 -0.377102
CEE -0.58794266 0.37534538 0.5952635 0.1713806 -0.5644345 -0.46669632 -0.025931204 0.036913477 0.29669315 -0.6270678 0.41532126 -0.2999504 0.750958 0.16840462 -0.34323013 -0.26810563 -0.27608275 -0.08653734 -1.1987187 0.08824711 -0.8950216 0.8157343 0.97564024 -0.09006078 -0.38559946 -0.30219322 -0.599858 -0.9316652 0.37624133 -0.61861044 0.6165671 -1.3211977 0.5648313 -0.3545909 0.046170637 -0.19770856 0.059884667 0.73289007 0.007917287 -0.3601106 0.01365018 0.9037004 0.36145714 -0.22665094 -0.32905367 -1.0321444 -0.6747976 0.2446002 0.42987245 0.4252495
paese 0.05029976 -0.82199013 -0.6105401 0.22877946 -0.12150682 -0.17363462 0.591575 0.71003807 -0.60529256 -0.36611804 -0.13965268 0.023384748 0.2976229 -0.16533203 -0.15844782 0.31482825 -1.5615814 0.076157644 -0.2374078 -0.3511342 -0.33387047 0.43236628 0.698908 -0.5675742 0.11629744 -0.5176219 -0.62809944 0.5493359 0.008485407 -0.23740059 0.47798675 0.20205213 -0.88819146 -0.25545478 -0.62114406 0.5226842 0.45297647 -0.12923908 0.4453346 -0.45137098 0.016079012 0.36423814 0.26489168 -0.42462176 0.75158525 0.23124555 -0.13357826 0.24460234 -0.3568215 -0.77937734
vigore -1.7658036 0.23479122 -0.4696976 1.2214869 0.23616473 0.74441636 0.20616361 0.70976084 0.11604295 -0.5996064 -0.49915585 -0.5045103 1.6592251 0.3179325 0.65600187 -1.3556544 0.0031884154 -0.35353103 -1.2828835 0.020091444 0.58401495 0.7276964 0.75548404 1.556532 -0.55422163 -0.3229692 -1.4086196 0.7090844 0.80434674 -0.8001549 0.8174372 0.049342286 -0.32683307 -0.6688349 -0.3902694 -0.038925514 -0.9421035 0.027245307 0.0038435508 -0.6795624 -0.13663709 0.6313136 0.003054783 -0.91516536 0.016845439 0.99693346 -0.437644 0.19350617 -1.0993003 0.5839221
necessario -0.28724536 -1.1747364 0.47991243 0.27659297 0.32210073 0.5264318 0.5880254 0.108569965 -0.55752426 -0.2411091 -0.44627243 -0.14389893 0.39190558 0.13442387 -0.2504554 -0.566577 -0.5028024 0.09044824 -1.0300341 0.2577744 0.58106357 0.965484 0.7689704 0.75083363 -0.051278662 0.5572299 -0.23523095 -0.28020477 0.9996493 0.49102208 -0.07861389 -0.2803932 -0.9561387 0.28356126 0.47003934 -0.40305254 -0.1358209 0.42934567 -0.703449 -1.1520615 -0.3887085 -0.24961348 0.1569472 -0.095082894 1.0410529 0.20493433 0.81662166 -0.11104953 -0.153484 0.76178855
fine -0.11490277 -0.08636665 0.69190824 0.2031868 0.4060301 -0.066905074 0.3699892 0.50983083 -0.09499797 -0.29289094 0.33270437 0.7249483 0.39067116 0.02558405 -0.09089783 -0.32902995 -0.23746353 0.29923385 -1.2679818 0.015453082 0.50904626 0.36377594 0.7432116 0.21953319 0.055632852 0.005712791 0.07583982 -0.94404596 -0.1637363 -0.21026194 -0.095033355 -0.021745082 0.30859712 -0.49927917 -0.37590635 0.2766066 -0.2907444 -0.018361902 0.3324181 -0.39277673 -0.043158256 -0.25362048 -0.17644365 0.5371468 0.034260917 -0.46132722 -0.24522825 -0.8065009 0.68728536 0.22112878
successivo -1.0409418 0.5385632 -0.056829687 1.770202 0.27490845 0.7530583 0.27028555 0.4815672 0.5542872 -0.594389 1.0343525 1.0598267 0.4936968 0.9353863 -0.06422278 -0.46185687 -0.5243258 -0.6710599 -2.0364234 -0.14172463 0.0032909662 1.0275283 0.36689082 1.0630354 0.33634847 1.0123297 0.5080078 0.5946035 -0.15181571 -1.7439067 -0.15280657 -0.15842666 0.64701515 0.5585071 -0.51434904 1.0750029 -0.6806547 -0.21939111 0.074066594 -0.9592401 0.05507927 1.7202897 -0.227852 0.19933105 -0.19575262 1.491668 -0.011607811 0.1536088 -0.23977965 -0.36279705
parte -0.7024515 -0.44545656 -0.8388893 -0.40908256 0.08756027 -0.13277087 -0.24560754 -0.20831749 -1.7022837 -0.42223406 -0.02290644 -1.0068599 0.8678881 -0.042529628 0.020002712 -0.24498227 -1.3313175 0.19175956 -0.19329514 -0.52101237 -0.028861163 0.20354213 0.10006507 0.6833916 -0.1962106 0.15427795 -0.16774799 -0.019746814 0.18925087 -0.87773514 -0.023374846 0.8664681 -0.6381783 -0.43522862 0.12825713 0.83444786 -0.13771811 -1.0864757 0.62810993 -0.017295588 -0.55313104 0.50887734 0.27141798 0.60374576 -0.7828574 0.22064982 0.019371152 0.013964276 -0.3006494 0.87328345
opportuno 0.37652797 -0.4934745 0.486118 0.23234329 0.5571431 0.54709613 0.6947458 -0.2140904 0.059763372 -0.53819877 -1.1904951 -0.58059657 0.25052166 -0.05281661 0.07989934 0.05336211 -1.1117975 0.10818222 -0.6485577 -0.06734522 0.39051762 0.2882238 1.1372508 0.5467731 0.16772148 -0.38979474 -0.15087447 -0.5686542 0.09468503 -0.016049743 -0.43473515 -0.6262569 0.047243703 0.4992052 -0.25766486 0.07005382 -1.0945764 0.16850394 -0.24590543 -0.9301179 0.4461076 0.16356309 0.43645737 0.22518778 0.45211107 -0.3729037 0.39973974 -0.058997437 0.022494705 0.037985906
comunità -0.809178 0.0912552 0.2867512 0.40762895 0.8769231 -0.6043813 0.27977213 1.0162542 -0.491647 0.05319196 0.8214589 -1.6389318 0.0103898775 -0.053362776 0.92724216 -0.7995487 -1.2245249 -0.48560798 -0.18543528 -0.3413747 -0.543918 0.4463625 0.49334186 0.21170643 0.0682445 0.19466287 -0.4141056 -0.50076073 -0.76084584 0.34956253 -0.7546795 0.66632444 -1.1239293 -0.11161294 -0.5273956 -0.4205538 -0.7361916 1.5124993 -0.06246247 -0.45756683 -0.94093144 0.36889082 0.14018713 -0.35850114 -0.36767533 -0.1298871 -1.0460086 1.4265267 -0.93425804 -0.49417695
geografico -0.2636174 0.66826993 0.39548582 -0.6104181 -0.33262247 -0.8667611 0.13871916 0.47109893 -0.63943464 -0.1375259 -0.6530598 0.3469462 0.07148278 0.11761431 1.3295211 1.0871712 -0.81529003 -0.22710234 -1.4358797 -1.3284456 -0.5763016 -0.8375303 0.24618591 0.63202673 -0.39967054 0.3457899 -0.29197487 0.18537875 -0.23431759 -0.8218185 -0.3114412 0.120781206 -0.71517867 -0.23403439 0.33385435 0.2417303 1.1315817 1.3703123 0.44627652 -0.90184325 -0.353204 1.3298188 -0.056261264 -0.88865197 -0.04241114 0.13843694 0.09449169 -0.3441007 0.91055214 -0.22166196
isola 0.47137558 0.19219787 -0.46498227 -0.14432552 0.6108607 -0.28235447 0.98922324 0.41912556 -0.37380037 -0.7385104 -0.38449496 -0.34719777 0.52190405 0.041525032 0.6281555 0.4268132 -0.9341846 -0.48145145 -0.22546989 -0.53012455 0.32882282 0.024225246 0.58321345 0.72625166 -0.17964806 -0.7253721 -0.008908687 -0.9938625 0.19579037 0.29987487 -0.48632792 -0.4061018 0.28290895 0.5680982 -0.06337999 0.507334 -0.8806635 0.025540499 -0.69404286 -0.42521197 -0.72555256 1.1356515 -0.21209131 0.25593415 1.4369715 -0.24724512 -0.62356335 -0.6625866 -0.06349571 0.49863696
6 -0.15648444 0.17283562 0.73950624 0.054041695 -0.5405125 -0.16221395 -0.2727181 -0.12110376 -0.31984207 0.0048864624 0.20750114 -0.23275594 0.28110278 0.06313169 0.13129757 0.5233682 -0.162462 -0.3829739 -0.8318433 -0.81313777 0.17448832 0.45802397 0.27196565 -0.08236463 0.37612742 0.041715045 -0.31026608 -0.14809081 0.4181771 -1.1005598 -0.18916388 -1.0934833 -0.08393324 -0.5589944 -0.5074998 0.0809315 0.9640494 0.25004208 0.15199989 -0.016502162 0.3386199 0.5333995 0.9645596 -0.40716222 -0.5012174 0.07427743 -1.0496714 0.44710422 0.23667236 0.6727967
7 -0.7014181 0.71164715 0.5014766 -0.49143523 0.44618452 -0.419402 0.28580707 -0.09372297 -0.4622464 -0.46149197 0.29422227 0.0019148352 -0.078818165 0.64409935 0.31395748 0.54006237 -0.6869447 0.34018633 -1.248423 -0.4263876 0.5452325 -0.38301876 0.89162856 0.26947376 -0.4184875 -0.19414198 -0.5882316 0.56715393 0.30163705 -0.2597417 0.23044339 -0.5681772 0.12357783 -1.3857558 0.09824056 -0.418414 0.05922625 -0.039192785 -0.109957635 -0.39820972 0.47865683 0.4038704 0.5164122 -0.4554744 -0.76274663 -0.27922425 -0.76092136 1.5935208 0.21512187 0.41972145
registrare -1.2107136 0.7009474 -0.0371419 -0.49287087 -0.26199433 -0.30893967 0.1347437 -0.22309442 -0.4986874 -0.28303632 -0.31323388 -0.6846125 -0.37823147 1.1406753 0.8144737 0.3307055 -0.36421257 0.77302825 -1.5379218 0.4888483 -0.067257546 -1.4049358 1.2830927 0.84971476 0.09599654 -1.06512 1.0873263 0.032707468 0.35172442 -1.2070413 0.74088967 -0.67530143 -0.31422812 -1.198825 0.15776344 0.2718097 0.76960444 0.5740443 -0.15151429 -0.5628452 -0.9153782 1.809495 -0.59786856 -0.09258474 0.018502707 0.5178388 0.1842112 0.8405415 -0.26155087 1.0293946
UE 0.74496543 0.7433162 -0.29680246 0.15492949 1.0455372 0.009761 0.16450806 0.6107954 -0.07135986 -0.039607503 0.3776424 -0.0219376 0.6346881 -0.18906556 0.076126084 0.11040979 -0.076124646 1.2086377 -1.8401407 0.37882793 -0.8730639 0.25028434 0.8071359 -0.25850677 -0.29921973 0.8904888 -0.91580796 -0.19988517 0.5485122 -0.56617874 -0.84205335 -1.1026652 -0.19996978 0.023503438 -0.068760514 -0.16403854 0.90908706 -0.1274113 0.31318954 -0.18225998 -0.34381062 -0.021173958 0.6949336 0.2641128 0.4179656 0.35858762 -1.2987627 0.17500013 -0.7088124 -0.10387505
4 -0.4176329 0.41769958 0.31635326 0.3436199 0.07551015 -0.12002441 -0.09895122 -0.27933133 -0.15500577 -0.025345154 0.74737054 -0.26277077 0.16656512 0.12546317 0.07914461 0.13089484 -0.16767599 0.19424872 -0.7461914 -0.58468586 0.2751423 -0.16042097 0.73399407 -0.2499636 -0.6489096 -0.4119492 -0.60564125 0.09205509 0.4055075 -0.6741775 0.31335157 -0.30096266 -0.4471502 -0.30147123 -0.10985898 0.07466804 0.10299788 0.05112898 -0.012807646 -0.5609392 0.7121176 -0.48964933 0.7984978 0.16778846 0.41723567 0.26844412 -0.75032026 0.26565602 0.623553 0.017912336
comunitario -0.8441348 0.39172006 -0.08412711 -0.19556814 0.09986138 0.87337714 0.68330985 0.07898471 -0.15300074 0.21876629 0.5893049 -0.555076 0.21237291 -0.003283386 -0.6036268 -0.1569142 -0.42976964 0.37465256 -0.9611899 -0.5967929 -0.74758816 0.23026402 -0.5299897 0.74324197 0.614392 -0.2849745 -0.5470658 -1.1729211 0.15840545 -0.59411186 0.06229077 0.29983485 -0.026481295 0.5232592 0.44873428 -0.84041905 0.5246147 0.10304324 0.30904463 -0.5225009 0.6417094 0.096146226 0.5616325 -0.47741377 0.19249994 -0.55103964 0.36516345 0.22177283 -0.6657873 0.24844427
tra 0.23300193 0.14602819 0.3688349 -0.31623635 1.1360401 -0.18378142 0.67495346 0.62732744 -1.1746553 0.22823983 0.8331567 -0.26280126 0.47905692 0.43119425 0.79263747 -0.18744706 -0.59804696 -0.3694668 -0.58877265 -1.0875567 0.29173005 -0.15191093 0.54310936 -0.7191204 0.45457205 -0.39578626 -0.11305097 -0.79115885 0.60061044 -0.744771 -0.4550172 0.24754475 -0.15024696 0.26615977 -0.39209136 0.65421486 -0.06817787 0.30906054 0.58744675 0.4418565 -0.67869747 0.28389078 0.46921694 0.06939956 -0.27139902 -0.28609866 1.0336411 0.18205306 0.31023133 -0.10082653
c -0.4276703 -0.5169995 0.5332658 -0.04298346 -0.1232543 -0.30475578 1.1543967 -0.12269816 0.10455842 0.6790795 0.25500682 -0.03403607 0.031560432 -0.20420313 0.8270517 -0.43132406 0.35900676 0.6964719 -0.857155 -0.68003887 -0.14047962 0.536973 0.5176679 0.4130927 0.35523936 0.6959965 -0.028141499 0.29713428 -0.12587306 -0.16511208 0.32094428 0.19947752 -0.043000925 -0.21113175 -0.85858464 -0.46245554 0.23741579 -0.47481662 -0.33665594 -0.8978186 -0.3416111 0.2846163 0.48729783 0.6034867 0.16978234 -0.39578983 -0.9726881 0.29205108 0.7088647 -0.31652254
titolo 0.30088344 -0.67103887 0.4198283 0.30759254 -0.1745768 0.6025441 1.1647353 -0.62115306 -0.6435122 -0.58738714 0.40874463 -0.25084078 -0.48046997 -0.050728627 0.03208231 -0.27304363 -0.30141065 0.11680219 -0.7750288 -0.5880339 -0.6158726 -0.11327061 1.485689 0.18097349 0.2159777 0.38608664 0.093898036 -0.10378669 0.34593195 -0.3428357 -0.18911591 0.37677366 -0.43813056 0.29315433 1.0828042 0.025074452 -0.34092838 -0.028494127 0.19127421 -0.1179162 0.5555641 0.755436 0.7651462 0.51728123 0.5060706 0.77150303 -0.6030415 0.16088668 0.7829007 0.1002828
locale 0.12341505 -0.25403067 -0.6386072 -0.83482367 0.21752162 -0.4916886 0.484799 0.3585475 -1.0074145 -0.99075127 -0.24996044 -0.29604656 -0.37820125 0.53416914 0.25851595 -0.09275291 -0.27684847 -0.8393982 -0.8371358 -0.5614778 0.32780695 0.027528528 0.18988347 0.7301034 0.350947 -0.3973967 0.37413168 -0.20100828 0.6224125 -0.14938836 0.571957 0.393021 -0.3979727 0.7828495 -0.3468146 1.0451967 -0.06871035 -0.38413936 -0.42046386 -0.58063537 -0.21566728 0.25433806 -0.12082066 -0.30267632 1.2816731 -0.11942109 -0.32305494 -0.71804255 -0.06324046 0.5002413
utilizzare -0.49715808 -0.29556793 -0.71438956 -0.22195897 0.35567743 -0.4517927 0.5244394 0.5901007 -0.34851164 -0.21722253 0.25111642 -0.005362927 0.5009184 0.77674985 0.025725255 -0.23609239 -0.3315829 0.65484464 -0.2516799 -0.8935261 0.307267 -0.10435999 0.44332448 1.1832573 -0.14304197 0.22011556 -0.34932223 -0.36420238 -0.7669798 -0.17195265 0.3534118 0.15866739 -0.060079586 -0.4656463 -0.057716426 -0.33549184 0.5296924 -0.33058968 1.111932 0.3228444 -0.4218355 -0.25017825 0.55562246 0.58116674 1.0668079 0.025154447 0.68869656 0.14753625 -0.67942566 0.63954484
modificare -1.0268396 0.026068747 0.33642414 0.47727814 0.039275825 0.16051772 0.43152606 0.60084254 -0.44056502 -0.55583954 -0.3306639 -0.62969875 0.46756175 0.100475125 0.5302482 1.2799001 0.40928894 0.7764 -0.7782356 -0.1793218 -0.28032762 -0.061713777 0.3646618 0.5053448 -0.61170185 -0.11190363 0.38104603 -0.37637863 0.34162062 -1.2889045 0.59384584 -0.81696606 1.019212 -0.062476315 -0.036568202 0.42904145 0.4876929 0.70949644 -0.15910503 0.25520578 0.36432254 -0.40008783 -0.6407322 0.54853755 -0.06628679 -0.11303481 -0.41769066 0.7613775 -0.86392224 0.9876587
ambito 0.18374383 -0.5447062 0.31622422 0.16146982 -0.023790218 -0.21667367 0.422497 -0.34731367 0.0057109413 -2.2418084 0.20337363 -1.168218 0.29861388 -0.06459442 1.1223114 -0.2997323 -0.5682938 0.2704137 -1.1197869 -0.17704947 0.11301984 0.34359738 0.32007137 0.12609752 0.014200087 -0.5575446 0.77268887 0.040406372 -0.030449403 0.21654093 0.15915763 0.034166213 0.12594888 -0.48621997 0.19032106 -0.29386187 -0.12413415 0.1167673 0.28213587 -0.38762116 0.18251167 -0.16727617 0.72545046 -0.4323231 0.07353724 -0.105351545 0.29011968 -0.68441695 -0.50239074 0.029549973
settore -0.3976912 0.60375214 0.38956618 0.10360202 0.5412487 0.4566706 0.55885506 0.10382822 -0.17828256 -0.3257037 0.642363 -0.7220337 0.19725241 0.2776786 -0.023859324 0.09767157 -0.85045415 -0.50932854 -0.8917753 -0.39707062 -0.34410745 0.35613713 0.036551896 0.31069264 -0.02439747 -0.5037931 0.23836656 -0.87278146 -0.2245114 0.06330263 -0.34837657 0.1766553 -0.15427987 -0.53390855 -0.30817086 0.3552734 -0.17181674 -0.61363995 0.16039912 0.2972909 -0.7125507 -0.1879988 0.28115606 -0.43504715 -0.33384696 0.2730183 -0.4751067 -1.3341575 -0.5343438 0.79635656
entrare -1.6644377 1.0182985 -0.44672877 0.88678575 0.21915393 0.5760344 0.05518249 -0.53711975 -0.9404036 -1.1114509 0.49525303 -0.39495313 0.7041127 0.8525988 0.9150841 -0.552822 0.36951008 0.4758056 -1.9360027 0.2980744 0.09607483 0.7532688 0.067582525 1.1485765 -0.39367515 -0.004816363 -0.8616795 0.42692268 0.4604405 0.41102752 0.06727924 -0.53154653 -0.048088588 -0.5813046 -0.16522004 -0.594345 -0.7246154 -0.9886135 0.7156789 -0.73734623 0.60693717 1.4101768 0.6372694 -0.039592918 0.48801884 1.6900901 -1.0605651 -0.77604204 -0.5313686 0.5375166
istituire -0.7564785 -0.5360682 -0.61912715 0.9642651 0.8008861 -0.15033972 0.46037668 0.19537428 -0.54243344 -0.6857009 -0.12679721 -1.1003658 0.23991185 0.1340751 -0.049289793 -0.45383105 -0.76706785 0.7080341 -1.2739516 -0.28120452 -0.86906606 -0.32628456 0.2503315 -0.053519677 -0.98882437 -0.9312873 0.78365827 0.33656794 -0.2864467 -0.42233014 -0.78322846 0.42171854 -0.060623784 -0.2904404 0.003814807 -0.11256566 -0.70122224 0.061631043 -0.6686642 -0.5728331 -0.8410664 0.32202393 0.34337786 0.2505892 -0.9080607 -0.7051603 -0.44665167 0.24306063 0.41418844 -0.0045710076
C -0.0021365618 0.15834624 -0.19317493 1.2324066 0.46266612 -0.2914577 0.9597951 -0.2600365 1.107281 0.25475955 1.5539411 -1.1865376 0.85546976 0.13965754 1.1897773 1.0789082 -1.2366464 -0.2780273 -1.1609577 0.11865556 -1.1002609 1.0728359 -0.15184805 0.93726784 0.36398166 -0.34284523 -0.122322194 0.32101396 0.2771912 0.1641371 0.6559558 -0.5759678 -0.40492567 -0.3953901 -1.1840088 0.34257367 0.50106645 0.13487503 0.15165801 0.4613085 0.6016442 1.542515 -0.07842866 0.14771444 0.76082003 -1.1237727 -1.2961892 1.1626602 0.3082249 0.9573735
pubblicazione -0.754105 0.65809375 -0.29927883 1.7684685 -0.034049332 0.7126821 0.32128057 0.6195278 0.87692094 -0.8606994 0.7719069 0.048942618 0.9912222 0.35984018 1.5112349 -0.33296883 -0.4221729 -0.69746035 -1.4252936 -0.18653755 -0.33937177 1.2747314 0.705078 1.4329296 0.52803224 1.1910897 -0.811668 0.12767597 0.4582582 -0.5571259 -0.1873109 -0.086017966 -1.0131477 -0.564363 -0.6813294 0.58212173 -0.25804874 -0.30204695 -0.47577125 -0.93491673 0.95975786 1.7056872 -0.081413224 0.51627827 -0.30934367 0.88068235 -1.2526464 -0.8957182 0.26683962 -0.11361325
registrazione -0.49588934 0.03867273 -0.40567693 -0.4712898 -0.28060737 -0.60449415 0.73369026 -0.26584935 0.39635196 -0.7425074 -0.41406804 -0.64173394 0.54502434 0.53622633 0.67833155 0.14278947 -0.85274625 -0.032426234 -0.31768274 -0.6125682 -0.11615478 -0.32731807 0.49847305 0.06019101 0.8810652 0.28419167 -0.5663877 -0.3546748 -0.07300167 -0.9035165 -0.09209631 -0.20743497 0.19527107 -0.66656536 0.27122405 -0.11871443 0.45056975 0.23267953 0.5042969 -0.03953865 1.2812414 0.7101875 0.18813865 0.036968224 0.34668413 -0.08941871 -0.04745491 1.5186844 0.045591116 0.64522505
giorno -1.4453095 0.88619477 -0.71068615 0.8918519 -0.1271991 0.27275828 0.58509403 0.49858037 0.06063685 -0.7361159 0.81845605 0.1973294 0.35631225 0.5490473 0.80108637 -1.3742524 0.24452904 -0.19206186 -1.903689 -0.28276744 -0.5265932 0.1815632 1.266324 0.9035613 0.6128674 0.95783603 -0.6111676 0.47144333 -0.23514622 -1.1181676 0.2036961 -0.36215615 -0.6746134 -0.30274794 -0.042071026 1.7017955 -0.78591096 -0.24467057 -0.36724412 -0.59289956 0.43159705 1.3915054 -0.04904408 -0.2252304 -0.09276523 1.941285 -0.9800682 -0.8819092 0.28515074 -0.09964182
finanziario -1.4123621 -0.20981407 0.22068873 0.13387468 0.57384604 0.23978715 -0.5600853 0.15936644 -0.23110037 -0.69347537 0.61577266 0.12643193 -0.5211799 -0.3883983 0.06284138 0.42820808 -0.8970651 0.09528566 -0.5905891 0.16921394 -0.22706854 0.6241724 0.2486658 1.5078121 -1.009529 0.15145019 -0.6389859 -0.77134174 -0.25873786 -0.80613786 -0.5125959 0.13102566 -0.15239856 -0.41163763 0.4584474 -0.09583498 1.3621624 0.101295784 -0.36532956 0.30724856 0.53138775 0.4321092 0.9509641 0.8781658 0.3707938 -0.08267899 -0.12863111 -0.70582825 1.7720406 -0.43375304
competente -0.7129282 -0.7595297 -0.33734217 0.15820798 -0.065258965 -0.59984785 1.2766562 -0.2412624 -0.43027845 0.14247642 -0.9849737 -0.62910914 -0.028199613 -0.17247857 0.35923335 0.8006234 -0.97498816 -0.48319888 -1.1954619 0.17283566 0.313194 0.92987514 -0.3222049 1.0890151 0.22529653 0.32010603 -0.32849592 0.18806826 0.27536935 -0.28157663 0.24826638 -0.12790643 -0.37674367 -0.39588898 0.2939608 0.7469452 0.0021667073 -0.20044483 -0.40590778 -0.75625414 0.36034516 0.025575176 -0.033198047 1.0953472 -0.64134115 0.8008021 -0.06216378 0.3445456 -0.025071364 -0.59049034
ultraperiferiche 0.60825247 -0.776189 -0.3977058 0.20766158 0.8119184 0.1416388 0.74583787 0.69013965 -0.15481049 -0.75223583 -0.35734215 -0.116154514 0.24483007 0.5805317 0.27152842 0.43462712 -1.313415 -0.7460389 -0.6773991 -0.86455786 -0.058062796 0.0007123514 0.7147861 0.9282469 0.12314383 -0.56598413 -0.32976323 -0.40554583 0.5591138 0.15754132 -0.4904044 0.12304497 0.32946375 0.25194675 -0.434258 -0.09747101 -0.07898136 0.48640147 0.39831895 0.23935091 -0.02115685 0.92927414 -0.21975559 -0.08541315 0.31874153 -0.8210928 -0.34717113 -0.65019745 -0.32521814 0.24117956
garantire -0.33193424 -0.6831492 0.18017446 -0.31056395 0.3400569 0.042531356 0.928067 0.55735844 0.02714063 0.09769007 -0.12946413 0.19697383 0.2848209 -0.09137066 0.10781015 0.015271784 0.02082769 0.0678077 -0.816463 0.002039536 0.5559871 0.4509349 0.5365338 0.62000644 -0.40085328 -0.31639594 0.61000645 0.07518081 0.48671886 -0.38631684 0.025656147 -0.23719402 -0.15466264 -0.22279672 0.58884543 0.05943221 0.23974691 0.38565227 0.4291731 -0.93101895 -0.97071373 0.013501937 0.72625613 -0.23349822 0.6313971 -0.16060467 0.7325172 -0.2716928 0.30774897 0.80128896
registro -0.8245538 0.20211485 -0.18633054 -1.7406363 -0.2884147 0.44405177 -0.32833093 0.37630075 0.097140685 -1.118391 0.85658133 -0.021410879 0.8197861 0.026403919 1.777103 1.1625618 0.44938397 0.792933 -1.6377826 -0.11962693 -0.9477589 0.059787028 0.81483364 -0.10779288 0.2313139 -0.4204989 -0.2307068 0.2515411 -0.7846627 -0.13198535 -0.25530595 -0.15329996 -0.6627529 -0.5515055 0.93018997 1.1372143 0.07892144 0.35802636 -0.4345696 -1.029417 0.43339065 1.0554534 0.79684263 0.95399916 0.35946524 1.003738 0.25314942 0.68334657 0.13918185 1.1587193
quanto -0.2090334 -0.30096444 0.13773513 -0.072045624 -0.4365708 -0.32847324 0.13575186 0.4847699 0.32208082 0.47689936 0.3231994 -0.5601437 0.17746012 0.65332216 -0.102725655 0.016591908 -0.23268239 -0.28122124 -1.346551 -0.39334512 -0.25347382 0.46793017 0.39321333 0.7835575 -0.3637414 0.084561005 0.5790411 -0.22321878 -0.32244244 0.84145004 -0.044406872 -1.2548766 -0.18004619 -0.258252 -0.22116506 -0.7233555 0.13152526 0.24406669 0.6284623 -0.45997357 -0.0866688 -0.25367874 0.5521625 0.12854469 0.72029775 0.18438607 0.3692119 -0.037712716 -0.3051046 0.353076
disposizione -0.5166792 0.4661911 0.38546264 0.4742712 0.15956685 0.038672473 0.8893757 0.7326877 -0.6787219 -0.2730569 -0.11068341 -0.41812485 0.26544797 -0.24495836 -0.3280395 -0.03214241 -0.17134967 -0.17266361 -0.4691752 0.21604073 0.07396981 0.318953 0.5883864 0.2795783 0.15871672 0.4915363 0.011250886 -0.4595333 -0.12476896 -0.016638149 0.0024990437 -0.3409425 -0.09473704 0.102899104 0.52183706 0.03684018 0.2963021 0.011050438 0.5123085 -0.534507 -0.008039916 0.15488407 -0.023691973 -0.117052086 -0.51639193 0.039728243 -0.32711503 -0.16302668 -0.58328813 0.4350319
questo -0.13392349 -0.49514014 0.56763035 0.3765325 -0.06061493 0.4864457 0.27389345 0.08584744 -0.304843 -0.6137681 -0.5380784 -0.19848816 0.05951509 -0.21127458 0.1755178 -0.2258807 -0.62579453 -0.067883514 -0.17161678 -0.6885915 -0.21453504 0.8298924 0.5271145 0.80498976 0.86819667 -0.5231396 -0.546338 -0.39346907 -0.060876712 -0.10352571 -0.74726796 -0.55002594 -0.04217081 0.026737534 -0.45133436 0.24350484 0.61588347 0.18904275 0.07842925 -0.91134274 0.033670783 -0.08970854 -0.28373256 0.11105818 0.6133773 0.07557033 0.8573144 -0.037004087 -0.06905032 -0.03021829
operatore -0.04582593 -0.34168634 -1.0246043 -0.3349894 0.21274714 0.1723575 0.5750207 -0.10059794 -0.74055135 0.085077144 0.2239699 -0.10131239 0.7488636 -0.41006416 0.24946415 -0.043712374 -0.8569084 -0.46685627 -0.47856522 -0.5192249 0.3370158 0.8233334 0.061896805 0.2025641 0.15004727 -0.21561582 0.03381418 0.57371604 -0.70866746 -0.31504658 -0.3919249 -0.16333295 -0.28825703 -0.10083969 0.6697816 -0.27020493 0.38246468 -0.088797174 0.2163148 -0.8610507 0.31968024 -0.105276555 -0.18211709 1.1658372 0.25063756 0.6110627 -0.119340405 0.27456748 -0.24314533 0.0538928
recare -1.2210338 0.73539877 0.32129198 -0.066535644 1.0646969 0.009234107 -0.4142563 0.25840285 0.18231367 -0.38265482 1.5371567 -0.26928475 1.0342441 -0.8062081 -0.017947366 0.18496485 -0.40535438 0.58036846 -1.9404187 -0.40516928 -0.8010195 0.35689974 0.33699661 -0.61541975 0.12186808 -0.11460058 1.0846866 0.8066725 -0.5781152 0.15843378 -0.31428027 -1.4655794 -0.45809066 0.08348609 0.6231035 -0.032627344 0.24162924 -0.4531444 -0.5259439 -0.48301798 0.08522466 1.300455 0.77274567 -0.2636977 0.301268 -0.16045003 0.72847414 0.20529665 -0.43094006 0.48635417
importo -0.3357705 -0.6114402 -0.40056485 -0.26173475 0.45623422 0.33500814 0.534911 -0.6807405 0.4166353 -0.58691275 1.3854275 0.05193122 -0.1892138 -0.0487906 -0.46214733 1.0737177 -1.1911182 0.17038162 -0.48903042 -0.086617455 0.15276898 0.37046358 1.3413507 0.8228617 -0.426357 -0.08499391 -1.2461604 -1.0498229 -0.4789033 -0.5430965 -0.46240583 0.28616714 0.1532894 0.43886968 0.48819885 0.3072008 -0.054851826 0.024589188 -0.5602142 0.25814226 0.15826263 0.515902 0.6101067 -0.049288716 -0.10287774 0.511185 0.13482995 0.35367042 -0.31752348 -0.3824909
materia -0.5748656 -0.23003122 0.6898901 0.35879079 0.23983301 -0.041157514 -0.42568514 0.43819016 -0.18482111 -0.05472338 -0.15811521 -0.116060995 0.56282073 0.47793114 0.08855267 -0.2611703 -0.18938532 -0.45336822 -0.5766415 -0.8928676 -0.14153183 -0.097468466 -0.3560544 0.47024757 0.56051964 0.381685 0.34983802 -0.6113393 -0.53736126 -0.41734424 -0.023125175 0.5634453 -0.27303648 -0.22262283 0.09730337 -0.32973966 0.7907449 -0.3322319 1.3395264 -1.0595584 -0.22360417 -0.07122577 0.7575338 0.25574744 0.8665396 -0.12235551 -0.9132528 -0.3293869 -0.40272245 0.22664915
organizzazione -0.5923616 0.35687658 -0.14490367 -1.1508801 0.42483863 -0.22145848 1.2314698 0.06480397 0.19129463 -1.2473131 0.65857375 -0.41581163 -0.35559434 -0.3728165 0.21378687 -0.53924966 -0.9986593 -0.40732205 -0.8868608 0.1239953 0.060883787 -0.029621432 -0.5048583 -0.040061537 0.43508977 0.0040216716 0.5866065 -0.53799236 0.5030886 -0.97782975 -0.36484042 -0.10318306 -0.2785971 0.1409162 0.13601987 -0.06374889 1.3521774 -0.43322518 -0.4086349 -0.19964339 -0.23943056 -0.053594362 -0.1525267 0.16834128 -0.072926044 0.37253174 -0.25077695 -0.47102985 0.020606905 0.04896899
più -0.5051265 -0.45375684 0.42650878 -0.04943454 0.451745 -0.25297186 0.2703881 0.47639158 -0.33104348 -0.3880417 -0.60617995 -0.11413146 -0.37899652 0.4367715 0.33686256 0.6678934 -0.61929995 -0.6568846 -0.5890455 -0.27670807 0.07275989 -0.265126 0.5265844 -0.1723365 -0.019032458 0.2889222 -0.30961135 -0.27754033 0.03868483 -0.47933328 0.09791506 0.18374647 0.15201262 0.16037476 -0.09485631 0.26648277 0.08521932 -0.28345 -0.26449203 -1.0577172 0.92363906 0.25111884 0.19975917 -0.41359925 0.103951536 0.2735334 0.05371194 -0.07454091 -0.037451483 -0.39189765
pertanto -0.5548129 -0.4340655 0.2353965 -0.18394466 0.9535452 1.0141109 -0.22873558 -0.48578086 -0.35957617 0.26897013 0.42231154 -0.6909736 0.027939932 0.91426927 -0.18844013 -0.011020508 -0.77504313 0.15047854 -1.256488 -0.7338935 -0.54195035 0.4939526 0.46803764 0.14658716 -0.879256 0.18596725 0.13816327 -0.069989406 0.6402925 -0.41466922 -0.506512 -1.5337408 0.22048712 0.07357733 -0.29590726 0.41659206 -0.89875674 0.52127916 0.97918314 -0.57696736 -0.16847195 0.26272568 -0.79960144 0.5063112 0.34956175 0.75559294 0.46584636 0.6726512 0.5983457 -0.036155753
detto 0.2923179 -0.73962206 0.6159523 -0.5800395 0.3017388 -0.7870654 0.4364447 -0.23148082 -0.54500556 -1.0818094 -0.028217325 -0.9881639 0.4465646 0.3735316 -0.27526027 -0.3028038 -1.0881362 0.11907987 -0.53573096 0.15701504 0.13500352 -0.5441175 0.3779173 1.0633506 0.32195494 -0.28183392 -0.067237325 0.6757548 0.5985392 -0.18224844 0.22406712 -0.85958326 0.5297045 -0.41767618 0.282254 -0.29913393 0.7602484 1.0216378 -0.20263919 -0.66706645 -0.08240403 0.90857184 -0.04360656 0.4832385 0.5093887 0.03143488 0.72853327 0.2403118 1.1428833 -0.32127738
pubblicare -1.3211199 0.15795782 0.18950726 0.94706815 -0.7813946 0.12584469 -0.1767613 -0.18499863 0.8098696 -0.22311644 -0.100536376 -0.9431859 0.76280844 0.75686556 0.4132813 -0.109397925 -0.87749416 -0.94068366 -1.521335 0.086739436 -0.40210125 0.30970323 0.6117583 0.53100824 1.4466277 -0.0015251902 -0.1948181 0.3872973 -0.63673383 -1.3835909 0.51622874 -0.3170293 -0.17779234 -1.3399212 -0.016635766 0.678993 0.66966784 -0.007883326 -0.21414037 0.17783162 0.68539715 1.0123192 -0.66112924 0.3797282 0.9584707 -0.07841019 0.35767102 0.71584386 -0.8956342 0.16978566
n -0.52531594 1.4759536 -0.76220477 -0.07137521 1.4623421 -0.018129928 0.43203306 -0.4045796 -0.41846785 -0.8926833 0.83255553 -0.39816943 1.1630126 -0.3777764 0.9219867 0.49059737 -0.029200215 0.34412545 -1.5884064 0.82118374 -0.3330771 1.204497 0.57577145 -1.2498455 0.08321633 0.5024185 0.45231506 0.06106561 0.47335026 -1.0490086 0.8508073 -1.2422639 -0.14092672 0.80281615 0.27847236 0.7857309 0.50811845 0.084025815 0.36671343 -0.31182542 -0.6993706 0.6590862 0.05287957 -0.10727148 0.29753014 -0.54678726 -1.1195328 0.5807661 -0.43940523 0.5723817
uso 0.6256559 -0.07355961 -0.08143459 -0.41560215 0.88185054 0.34617457 0.6304171 0.43875617 -0.34170532 -0.09775907 -0.017320257 -0.2708779 -0.18600762 0.3893927 0.41595885 -0.34385547 0.037191793 0.049777843 -0.52937037 -0.41406634 0.47585344 0.7821861 0.5982578 0.77260154 -0.6343803 -0.08368666 -0.5569462 -0.28050584 0.012698954 -0.13320874 0.87249744 -0.05477867 -1.049084 -0.43084344 0.05982803 -0.1834331 0.94288033 0.77292734 0.40840065 -0.6720404 0.11334009 -0.34886053 -0.14958097 -0.17500918 0.82275784 0.52958006 0.38179186 0.6543736 0.21169412 0.5453287
suo -0.41299316 -0.8728483 0.33902866 -0.14463033 0.3009872 0.89919114 -0.35409033 0.6399767 -0.4221747 -0.05480988 -0.11969936 -0.102235466 -0.42837772 0.82287616 0.37754765 0.6063776 0.0800747 0.07198278 -1.0023814 -0.11166705 -0.011602451 0.55896956 -0.35879475 0.44289926 -0.6896698 0.01279223 -0.092804186 0.29059088 0.1717353 -1.6666497 -0.9455042 -0.8205752 -1.1878804 -0.34009144 -0.7723341 0.09524455 -0.42403674 0.15426736 0.12462622 -0.61086136 -0.38820928 0.4763782 -0.15633401 0.62123746 0.24785523 0.42974046 -0.852685 -0.045099262 -0.64235806 0.36785838
trasformazione 0.02525151 -0.10887514 -0.6687022 -0.0606688 0.5970964 -0.42890424 0.16116476 0.8340652 -0.026089342 -1.2971126 0.05673888 -0.40591595 -0.4573939 0.5838184 -0.7569528 -0.11438543 -0.2544786 0.25298432 -0.543774 -0.771887 -0.775703 0.41108596 -0.03142613 1.0771582 0.29514447 -0.8193491 -0.37996295 -0.09671248 -1.1094102 0.33813277 0.5300142 0.11856224 -0.5834312 0.5392033 -0.36651123 -0.29469123 -0.7483738 -0.293536 0.28252372 -0.7758602 -0.55550885 0.44641706 0.34587523 0.49287143 0.50428355 0.28126973 -0.6090723 -0.554129 0.21481423 0.813141
vegetale 0.052216716 0.21956012 0.81338865 0.10666225 0.82076406 -0.103558704 0.09715511 0.6187248 -0.2963861 0.25073096 0.19280595 0.031047782 0.1005887 0.71067435 -0.2436071 -0.38117188 -0.70593005 -0.0128510175 -1.2281586 -1.1137159 -0.55272144 0.62039036 -1.0718427 -0.24633822 -0.50295967 -0.32620627 -0.36577475 -0.66748554 -0.8846382 -0.662855 0.033121943 0.5993099 0.02846128 0.19785209 -0.143305 -0.017543938 1.3223466 -0.2887048 -0.5455002 -0.18303362 -0.10826154 0.5221349 0.65303916 -0.38808155 0.70728606 0.2058394 0.33245167 0.10736752 -0.7512966 0.3060608
destinare 0.5625085 -0.53023416 -0.14551254 0.5795879 -0.16313665 -0.6922998 1.1114202 0.004975607 0.3766415 -1.1411453 0.76112527 -0.2615068 -0.3232095 0.27813557 -0.21865359 -0.2441724 0.058002982 0.4028904 -1.2572529 -0.9733167 -0.034561455 -0.04812064 -0.33122194 0.6595441 -0.35299036 0.36747196 -0.20665102 -1.0512697 -0.6718596 0.03716549 0.7920459 -0.117912136 0.56174976 0.51848114 -0.6559928 -0.11113798 -0.17228864 0.15977633 -0.005403076 -0.22381423 0.6991356 0.61842984 -0.43624118 -0.22280093 0.2201567 0.7466312 0.027104083 -0.012479169 -0.19071737 0.25727057
sviluppo -0.42889792 -0.3976239 0.359771 -1.3707504 0.41820085 -0.50908774 -0.12938872 0.78548926 -0.7416973 -0.6181944 0.1141605 -0.4326878 0.046700373 1.0722463 0.7557354 0.43668276 -1.0809885 0.047635783 -1.6174968 -0.36623257 0.32437238 0.5953124 -0.21164408 0.057258893 -0.34229 0.31207296 0.9741546 -0.4758533 0.21792106 0.22237788 0.77812004 -0.44583964 -0.16291238 0.8688886 -0.014070012 0.34945047 -0.27358532 0.041185174 0.15848662 -0.31213796 -0.8543426 -0.40420234 -0.33065325 -0.03892667 -0.05359713 -0.071196735 -0.35311875 -0.47490886 0.37408397 0.2836876
decisione -0.9595937 -0.5939767 -0.00046468538 0.7652801 -0.11299076 -0.34292433 -0.35553873 0.62589574 -0.927261 0.45821804 0.67150295 -1.0637605 -0.18675408 0.21298566 0.07531832 0.13634017 -0.1537422 -0.8148666 -1.231689 1.2301286 0.06840303 0.14708738 0.5164135 0.13283876 -0.066349335 0.6686449 -0.5916995 -1.1896571 0.15572625 -0.38665465 0.5386729 -0.50864005 -0.49087858 -0.7740029 -0.1563031 0.3815676 -0.30666894 0.9274485 -0.8705779 -0.35545096 0.29109067 0.32539043 -0.33538613 -0.0740717 -0.028202252 -0.6766979 -0.41235647 0.19317588 0.29429314 0.70502865
attuazione -0.64315695 -0.5787762 0.23494633 0.2793694 -0.43460727 0.047947578 1.1273068 0.6094953 -0.0011793755 -0.40355858 -0.52085257 -0.5264215 0.21642934 -0.1458327 -0.45850447 0.05912169 -0.1529484 0.05850243 -1.4218888 -0.1692215 0.06215381 0.81903994 -0.20733969 0.43674853 -0.30953163 0.53934836 0.3588089 -0.61183995 0.87640834 -0.20077929 0.33548543 0.29953036 0.12742211 -0.076102465 0.9187962 0.2549734 0.15120564 0.10124217 0.3676554 -0.45053518 0.52399766 -0.0045724246 0.27646583 0.37959874 -0.6956078 0.6007972 -0.13667859 0.45362863 0.5920486 0.6435592
nazionale -0.51455504 0.260011 0.27625996 0.23134257 0.8140192 0.34625813 1.6437864 0.03586025 -0.8904325 -1.4628519 -0.146765 0.82617646 -0.37761545 -0.7618957 0.47940722 0.042024076 -0.6861113 0.48794135 -0.7594105 -0.0575758 -0.19710985 0.6071731 -0.38365898 0.7838257 0.07064107 0.61485213 0.024592914 -0.25836036 -0.3782988 -1.2951312 -0.37515208 0.24491279 0.35576466 0.103346616 0.88496107 -0.4165481 0.2567991 -0.28153804 -0.26606357 -0.45342764 0.31320268 -0.009744495 0.34645653 -0.96919245 -0.1188635 0.030920742 -0.5007985 0.21560684 0.15564568 -0.043507386
notificare 0.4911458 0.16927062 0.14795782 0.7557969 1.1883333 -0.80604184 -0.8694694 0.050749276 -1.1045258 -0.70311093 -0.027711852 -0.3348694 0.58236367 -0.35246047 0.5028051 -0.1385991 -0.5989896 0.6916391 -1.9640943 -0.76189244 1.0771644 0.2648502 0.44754001 0.7396154 0.2986926 0.44789258 0.14896215 -1.2637008 -0.035280652 -1.0840819 -0.9033115 0.013347046 -0.76055646 -1.1848912 0.78709495 0.34915927 1.1984302 -0.29300043 0.56632876 0.7825029 0.8592335 0.52693826 -1.1091558 -0.4532236 0.14643861 0.41758007 -0.43232512 1.2663317 0.11816986 -0.47727302
livello -0.6163599 -0.6178866 0.12665366 -0.14848629 0.26700893 0.09605536 0.502969 0.29000732 -0.07506428 -1.3365642 -0.7714695 0.8287205 0.70411 -0.45531955 -0.2805853 0.32518205 -0.90028745 -0.08051533 -0.7736154 -0.6266308 0.43436128 -0.15362899 0.6978492 0.7848215 0.021537798 -0.22667055 0.080048755 -0.005705293 0.14477754 -0.18552956 -0.24773574 -0.2631732 -1.2597427 0.6308802 -0.1646336 -0.032846365 1.7410569 0.22006644 -0.46962512 0.0055376557 -0.05840901 0.361022 0.5161958 0.51045305 0.18264818 0.18816389 0.7434021 -1.305723 -0.6572143 0.39761212
tutto -0.09590017 0.6264011 0.1641082 -0.32370788 0.26668832 0.3101818 0.8534194 0.7126031 -0.51019734 -0.2272141 0.25752696 0.02591822 0.20852451 -0.5669231 -0.021978075 -0.121945806 0.14296556 0.46505752 0.07972428 -1.0848863 0.036305375 0.71950555 -0.1301077 0.5587686 0.020723449 0.26117605 -0.2895183 -0.67675614 -0.40791488 -0.9553806 -0.32955387 -0.6861935 -0.45453247 -0.40668082 -0.037180778 0.6670267 -0.022747563 -0.5135729 -0.108056284 -0.51171863 -0.23456259 -0.1882848 0.7030437 1.097864 0.6991043 -0.18365447 0.081990466 -0.3268453 0.08351183 0.101455435
seguente 0.23599637 -0.28560132 0.5724603 1.2428511 -0.23148382 -0.21794559 0.87173647 0.043284353 -0.7480546 0.006516602 0.34735775 0.22468513 0.05038569 -0.12828927 0.0977377 -0.09825661 -0.31811282 -0.10341305 -0.4902462 -1.3002299 -0.10259785 0.3765892 1.2614741 -0.059924774 0.020657042 -0.6124482 -0.7242867 0.4450201 0.11657714 -0.63290125 0.7597765 0.41110882 0.04250988 0.33545297 0.5055241 0.3743324 0.38259995 -0.8103418 -0.60184216 -0.30725864 0.15363024 -0.2659207 -0.073291786 0.3955395 0.67010266 -0.3554516 0.15680975 0.4175679 0.30106834 0.5647897
minore 0.30505922 0.099097565 -0.38178557 0.2767534 0.36115938 -0.018398296 0.083129115 0.5025331 -0.40244764 -0.93857336 -0.026012348 -0.14133018 0.012883287 0.26026717 0.28280583 1.2517786 -0.7705282 -0.42542097 -0.62579066 -0.2914526 0.29634917 -0.12391235 0.3337799 0.73275065 -0.34267431 -0.9530433 0.1797479 -0.21760198 0.0006022113 0.2143214 -0.43592393 -0.72005033 0.31909183 0.31419715 0.5810951 0.14092885 0.38315123 -0.28011948 -0.45566425 -1.0113008 -0.7107504 1.2620255 -0.5810009 -0.19983815 1.438762 -0.21663027 -0.49679983 0.10761228 0.5870204 -0.39331982
tenere 0.35470998 -0.85199195 -0.40486923 -0.10244938 0.52147734 -0.032134 0.39562497 0.3308588 -0.9841121 0.33749 -0.3470037 -0.7931547 0.0037614787 0.35832357 0.54645985 -0.1935051 -0.4567829 -0.325142 -1.3161175 -0.10685609 -0.05098235 0.57759714 0.732235 -0.13580512 0.97195303 0.021698704 -0.7042279 0.035375196 -1.0835158 -0.00839624 -0.016419197 -0.6368211 0.49907932 0.008151026 0.53126514 -0.090963654 -0.12686808 -0.6627879 0.16695496 0.36220548 0.016765319 1.0366728 0.19339688 0.9580934 -0.44851744 0.35614723 0.5998733 -0.35309473 0.2795161 0.63243103
del -1.3478503 1.2311114 0.3573448 0.28419006 -0.17074068 -0.72736347 0.89145267 -1.0551758 0.6534585 -1.2515205 -0.64544165 -1.1169165 0.6696358 0.81660974 0.7168722 -1.7119535 -0.44167113 0.22898984 -2.3198953 -0.44947806 0.016647842 0.0035622797 0.5219284 0.42331755 -0.45882016 -0.43048632 0.12184162 -0.23927452 -0.13283235 -0.6647358 0.105444364 -1.1587008 -0.30462533 0.08352925 0.14184667 -0.073737465 0.34655222 1.2032186 -0.06585409 0.19949344 -0.8855005 1.2789577 1.1160463 -0.10142409 0.07375366 -1.2296416 -1.0073104 1.1508231 0.6314316 -0.9276272
opposizione 0.29483145 0.5577849 -0.21948992 0.2570346 0.391843 0.0148938885 0.53444177 -0.05153243 -0.007781779 -0.9967713 -0.42064527 0.12777714 0.21308726 0.25273407 0.06972368 0.29192448 -0.73355556 -0.12074457 -1.820496 -0.7516126 1.3661126 0.318411 0.8967213 0.02787541 0.12680346 -0.2599579 -0.17398502 0.5638858 0.51932055 -1.5462976 -0.60482347 -0.66873026 -0.86384165 -1.6225833 0.2930488 -1.6827495 0.27597812 0.5608979 -0.34725967 0.19736253 1.0656643 0.8424086 -0.25997368 0.12040946 -0.16817445 0.37627482 -0.4216065 1.6278086 -0.66370064 0.39808935
sostanza -0.17414509 0.34792516 -0.6520045 -0.16145788 1.1186143 -0.934895 0.5116408 0.18514332 -1.1554683 0.0708262 0.62275094 -1.061101 -0.2891071 0.66276944 0.1891453 0.5375792 0.36914667 0.8003525 -0.24028957 -0.71283156 0.22385502 0.26338136 0.7746858 0.34814638 0.15546775 0.052548926 0.6359397 -0.67694086 -0.4244956 0.47457784 0.9665877 0.14462073 -0.66500926 0.40014586 0.19445887 -0.33641455 1.4596084 1.1121161 0.74238217 -0.2084499 -0.15054633 0.44125813 -0.5444087 0.78347605 0.38620636 0.5261906 -0.24101244 -0.23782305 -0.13902947 0.70344776
poiché 1.0067027 0.4616866 -0.35211658 1.2480692 2.2838252 -0.930764 -0.48445243 -0.1972547 -0.17732088 -0.16735399 0.10119532 1.0706909 0.7188552 0.3099267 0.29818866 0.310538 -0.7530377 0.28816348 -2.5738287 -1.0720965 0.35897133 0.5135859 1.1819677 -1.0734011 0.1493567 0.0001251705 0.30716744 0.05406794 -0.29466736 -0.6740093 -0.78243244 -0.4805596 -0.44587836 -1.5308731 0.54179657 0.056081504 0.18017319 0.5698457 0.4860509 -0.54998136 0.9017715 0.21359262 -0.58543515 0.4958152 1.0259212 -0.7451945 0.7469219 0.026740093 0.4565029 -0.07196486
comune -0.44221327 0.24145296 0.38908413 -0.12296316 0.5312066 0.3389952 0.70609385 -0.1023773 0.26217234 -1.1511621 0.16074802 -1.5156231 0.40884095 -1.1760446 6.0244965e-05 -0.2946591 -0.6147278 -0.0816965 -1.2348648 -0.42106792 -0.79717845 -0.514083 -0.71892047 0.77294904 -0.1616975 -1.2853819 0.422034 -0.68775374 0.49161822 0.1243823 0.8779647 0.23325194 -0.21092042 0.10076794 0.2782843 -0.590269 0.19816998 -0.1689767 0.2072617 -0.99178904 -0.102089755 0.78014594 -0.3355507 -0.26242793 -0.29132593 0.33421323 -0.95337254 -0.62164646 -0.31548864 -0.3348424
disciplinare -0.6344546 0.64068955 0.03401565 -0.52446544 -0.46256265 0.15743202 0.3077365 1.2512134 -0.3902609 -0.42653093 0.40135077 -0.27464408 -0.12063481 0.7670851 0.24780014 0.33625978 -0.43685517 0.44452134 -0.42037866 -0.36958572 -0.14289725 0.24278268 1.2703462 -0.003107025 0.42619485 -0.13026808 1.1247698 -0.32507518 -0.17861772 -0.6775994 -0.23589627 -0.13254566 -0.637153 -0.5901768 0.6375543 0.76866955 0.3520678 0.043096382 -0.16943565 -0.959991 0.600149 0.9486736 -0.7964993 -0.49489138 0.03830537 -0.24334665 0.10532843 1.0344238 0.5211334 0.3449155
periodo -0.7928955 0.20101014 -0.33213854 0.32977632 0.8581819 -0.1079455 0.13986327 0.01789043 -0.8449712 0.13672827 0.06952357 -0.06845491 -0.69808507 0.00012589869 0.8172535 -0.37761542 -0.6005077 -0.6246912 -0.08846395 0.022317758 0.44980142 1.2500279 1.120437 -0.23055279 0.32679096 0.08145597 -0.45185423 -0.509689 -0.28243172 -0.41658995 -0.48789227 -0.44603327 -0.64593786 1.2110941 0.033888955 -0.0029614482 0.61989784 -0.485734 0.17575793 -0.17246664 1.0736643 0.67397463 0.09382265 0.6979319 -0.06482375 1.0266074 -0.29304564 0.084616475 0.21803261 1.1326025
funzionamento 0.30114645 0.19023038 0.5164917 0.89350003 0.16902712 -0.08996442 1.362326 0.32196146 1.3971821 -0.15381896 0.5743865 -0.28949594 0.51132923 0.95033675 0.677613 -0.64614075 -1.5055614 0.3710626 -1.4644179 -0.13419288 -0.15248205 0.64242357 0.6573283 1.29531 -0.21745457 -0.3528782 0.54169285 -0.7321849 0.43552354 0.5751319 -0.5544256 0.5680963 -0.64294374 0.1951109 0.16739419 -0.041444298 0.3356659 -0.54201293 1.0915921 -0.84051764 -0.29909804 -0.1188422 -0.04868664 1.541467 -0.6040006 -0.015781974 -1.0884173 -0.18427262 0.5629513 -0.28208908
come 0.11624943 0.18470067 0.34292406 -0.28582188 0.105414666 0.4677849 0.69811434 0.7561588 -0.5465186 -0.32827225 0.008279757 -0.1272528 0.8539029 0.4442995 0.45985836 -0.2462147 -0.25444487 0.023220593 -0.6830666 -0.4899091 -0.32487455 0.17371498 0.12648596 0.09670419 -0.14079748 -0.23889823 -0.030557072 0.25091076 -0.1794998 -0.48366672 0.4539843 -0.2647585 0.27583876 -0.35433778 -0.62950456 -0.6614405 0.7779267 -0.09955071 -0.17474572 -0.4865938 0.121963486 -0.3915335 -0.38282487 0.010394262 0.43263623 -0.031641312 0.46677524 -0.13408609 -0.15564361 -0.02812448
